/* Generated by Edge Impulse
 *
 * Permission is hereby granted, free of charge, to any person obtaining a copy
 * of this software and associated documentation files (the "Software"), to deal
 * in the Software without restriction, including without limitation the rights
 * to use, copy, modify, merge, publish, distribute, sublicense, and/or sell
 * copies of the Software, and to permit persons to whom the Software is
 * furnished to do so, subject to the following conditions:
 *
 * The above copyright notice and this permission notice shall be included in
 * all copies or substantial portions of the Software.
 *
 * THE SOFTWARE IS PROVIDED "AS IS", WITHOUT WARRANTY OF ANY KIND, EXPRESS OR
 * IMPLIED, INCLUDING BUT NOT LIMITED TO THE WARRANTIES OF MERCHANTABILITY,
 * FITNESS FOR A PARTICULAR PURPOSE AND NONINFRINGEMENT. IN NO EVENT SHALL THE
 * AUTHORS OR COPYRIGHT HOLDERS BE LIABLE FOR ANY CLAIM, DAMAGES OR OTHER
 * LIABILITY, WHETHER IN AN ACTION OF CONTRACT, TORT OR OTHERWISE, ARISING FROM,
 * OUT OF OR IN CONNECTION WITH THE SOFTWARE OR THE USE OR OTHER DEALINGS IN THE
 * SOFTWARE.
 */
// Generated on: 22.11.2023 14:22:51

#include <stdio.h>
#include <stdlib.h>
#include "edge-impulse-sdk/tensorflow/lite/c/builtin_op_data.h"
#include "edge-impulse-sdk/tensorflow/lite/c/common.h"
#include "edge-impulse-sdk/tensorflow/lite/micro/micro_mutable_op_resolver.h"
#include "edge-impulse-sdk/porting/ei_classifier_porting.h"

#if EI_CLASSIFIER_PRINT_STATE
#if defined(__cplusplus) && EI_C_LINKAGE == 1
extern "C" {
    extern void ei_printf(const char *format, ...);
}
#else
extern void ei_printf(const char *format, ...);
#endif
#endif

#if defined __GNUC__
#define ALIGN(X) __attribute__((aligned(X)))
#elif defined _MSC_VER
#define ALIGN(X) __declspec(align(X))
#elif defined __TASKING__
#define ALIGN(X) __align(X)
#elif defined __ICCARM__
#define ALIGN(x) __attribute__((aligned(x)))
#endif

#ifndef EI_MAX_SCRATCH_BUFFER_COUNT
#ifndef CONFIG_IDF_TARGET_ESP32S3
#define EI_MAX_SCRATCH_BUFFER_COUNT 14
#else
#define EI_MAX_SCRATCH_BUFFER_COUNT 28
#endif // CONFIG_IDF_TARGET_ESP32S3
#endif // EI_MAX_SCRATCH_BUFFER_COUNT

#ifndef EI_MAX_OVERFLOW_BUFFER_COUNT
#define EI_MAX_OVERFLOW_BUFFER_COUNT 10
#endif // EI_MAX_OVERFLOW_BUFFER_COUNT

using namespace tflite;
using namespace tflite::ops;
using namespace tflite::ops::micro;

namespace {

#if defined(EI_CLASSIFIER_ALLOCATION_STATIC_HIMAX) || defined(EI_CLASSIFIER_ALLOCATION_STATIC_HIMAX_GNU)
constexpr int kTensorArenaSize = 368208;
#else
constexpr int kTensorArenaSize = 367184;
#endif

#if defined(EI_CLASSIFIER_ALLOCATION_STATIC)
uint8_t tensor_arena[kTensorArenaSize] ALIGN(16);
#elif defined(EI_CLASSIFIER_ALLOCATION_STATIC_HIMAX)
#pragma Bss(".tensor_arena")
uint8_t tensor_arena[kTensorArenaSize] ALIGN(16);
#pragma Bss()
#elif defined(EI_CLASSIFIER_ALLOCATION_STATIC_HIMAX_GNU)
uint8_t tensor_arena[kTensorArenaSize] ALIGN(16) __attribute__((section(".tensor_arena")));
#else
#define EI_CLASSIFIER_ALLOCATION_HEAP 1
uint8_t* tensor_arena = NULL;
#endif

static uint8_t* tensor_boundary;
static uint8_t* current_location;

template <int SZ, class T> struct TfArray {
  int sz; T elem[SZ];
};
enum used_operators_e {
  OP_CONV_2D, OP_DEPTHWISE_CONV_2D, OP_PAD, OP_ADD, OP_SOFTMAX,  OP_LAST
};
struct TensorInfo_t { // subset of TfLiteTensor used for initialization from constant memory
  TfLiteAllocationType allocation_type;
  TfLiteType type;
  void* data;
  TfLiteIntArray* dims;
  size_t bytes;
  TfLiteQuantization quantization;
};
struct NodeInfo_t { // subset of TfLiteNode used for initialization from constant memory
  struct TfLiteIntArray* inputs;
  struct TfLiteIntArray* outputs;
  void* builtin_data;
  used_operators_e used_op_index;
};

typedef struct {
  TfLiteTensor tensor;
  int16_t index;
} TfLiteTensorWithIndex;

typedef struct {
  TfLiteEvalTensor tensor;
  int16_t index;
} TfLiteEvalTensorWithIndex;

TfLiteContext ctx{};
static const int MAX_TFL_TENSOR_COUNT = 4;
static TfLiteTensorWithIndex tflTensors[MAX_TFL_TENSOR_COUNT];
static const int MAX_TFL_EVAL_COUNT = 4;
static TfLiteEvalTensorWithIndex tflEvalTensors[MAX_TFL_EVAL_COUNT];
TfLiteRegistration registrations[OP_LAST];
TfLiteNode tflNodes[27];

const TfArray<4, int> tensor_dimension0 = { 4, { 1,120,120,3 } };
const TfArray<1, float> quant0_scale = { 1, { 0.0028758170083165169, } };
const TfArray<1, int> quant0_zero = { 1, { -128 } };
const TfLiteAffineQuantization quant0 = { (TfLiteFloatArray*)&quant0_scale, (TfLiteIntArray*)&quant0_zero, 0 };
const ALIGN(16) int32_t tensor_data1[4*2] = { 
  0, 0, 
  0, 1, 
  0, 1, 
  0, 0, 
};
const TfArray<2, int> tensor_dimension1 = { 2, { 4,2 } };
const ALIGN(8) int32_t tensor_data2[3] = { 20813, -29258, -29564, };
const TfArray<1, int> tensor_dimension2 = { 1, { 3 } };
const TfArray<3, float> quant2_scale = { 3, { 0.00024592681438662112, 0.00019609721493907273, 0.0001935087057063356, } };
const TfArray<3, int> quant2_zero = { 3, { 0,0,0 } };
const TfLiteAffineQuantization quant2 = { (TfLiteFloatArray*)&quant2_scale, (TfLiteIntArray*)&quant2_zero, 0 };
const ALIGN(16) int8_t tensor_data3[3*1*1*32] = { 
  /* [0][0][][] */ 78,79,116,-69,-71,-4,-2,15,-18,47,27,-7,-29,-82,82,11,-33,58,57,99,-24,-10,41,-59,-127,116,-41,5,60,31,-17,2, 
  /* [1][0][][] */ 60,-42,-69,19,-13,127,-34,-8,122,-46,-5,-84,-66,106,36,-54,93,-45,-4,-96,-121,17,114,68,29,11,2,-13,-67,-54,-4,-25, 
  /* [2][0][][] */ -37,74,-80,80,86,-45,-42,117,94,39,127,-39,-101,-88,82,120,-88,-53,9,-116,73,115,-61,-103,98,-66,-19,-121,15,-80,87,-39, 
};
const TfArray<4, int> tensor_dimension3 = { 4, { 3,1,1,32 } };
const TfArray<3, float> quant3_scale = { 3, { 0.0040377303957939148, 0.0032196070533245802, 0.0031771077774465084, } };
const TfArray<3, int> quant3_zero = { 3, { 0,0,0 } };
const TfLiteAffineQuantization quant3 = { (TfLiteFloatArray*)&quant3_scale, (TfLiteIntArray*)&quant3_zero, 0 };
const ALIGN(16) int32_t tensor_data4[32] = { 306, 160, -35, -157, -53, -63, 297, -49, -90, -478, -55, 7, -166, -315, -181, 5, -228, -344, -344, -257, 210, -239, 20, 103, 159, 1261, -361, -273, -340, 53, -309, -147, };
const TfArray<1, int> tensor_dimension4 = { 1, { 32 } };
const TfArray<32, float> quant4_scale = { 32, { 4.0596984035801142e-05, 4.3663367250701413e-05, 4.5990735088707879e-05, 4.1378716559847817e-05, 4.8305006203008816e-05, 3.965615906054154e-05, 4.46936501248274e-05, 4.3180618376936764e-05, 4.322012682678178e-05, 4.3262578401481733e-05, 4.1280272853327915e-05, 5.9258643887005746e-05, 4.6558729081880301e-05, 4.2893410864053294e-05, 4.3661355448421091e-05, 4.1317340219393373e-05, 4.2538475099718198e-05, 4.2344254325143993e-05, 4.2457144445506856e-05, 4.1184091969626024e-05, 4.1953710024245083e-05, 4.5496792154153809e-05, 4.83981057186611e-05, 4.5238324673846364e-05, 5.0958944484591484e-05, 4.7936944611137733e-05, 4.798096779268235e-05, 4.0836119296727702e-05, 4.1511764720780775e-05, 4.2743144149426371e-05, 4.1868712287396193e-05, 5.2485003834590316e-05, } };
const TfArray<32, int> quant4_zero = { 32, { 0,0,0,0,0,0,0,0,0,0,0,0,0,0,0,0,0,0,0,0,0,0,0,0,0,0,0,0,0,0,0,0 } };
const TfLiteAffineQuantization quant4 = { (TfLiteFloatArray*)&quant4_scale, (TfLiteIntArray*)&quant4_zero, 0 };
const ALIGN(16) int8_t tensor_data5[32*1*1*96] = { 
  /* [0][0][][] */ -42,-46,121,11,104,-15,-88,-114,73,-96,-109,12,72,12,-36,64,-51,-27,-67,-51,-67,-104,11,120,-123,26,88,-36,124,2,-12,-82,94,-65,-105,78,-107,-84,-103,38,84,-83,-95,112,58,-104,117,-24,25,-45,-53,107,-81,-62,-98,121,11,78,124,-111,-78,90,-48,65,-13,25,80,109,56,115,88,-122,114,-101,35,99,-101,20,-57,38,67,15,101,9,-54,-39,-80,120,38,127,-2,-115,19,76,32,39, 
  /* [1][0][][] */ -59,28,-69,1,-61,69,41,18,83,-105,-102,98,54,-24,30,64,105,-40,42,101,-45,0,39,33,28,2,-37,105,26,-10,97,-82,57,103,-11,18,48,58,1,-61,-64,7,-17,-100,-35,33,-34,-45,-22,-81,116,43,21,82,-82,-47,27,100,65,84,-55,127,-83,-89,-79,30,81,44,89,26,24,12,-108,78,-51,49,66,-41,-38,67,-82,85,-47,-125,25,116,-65,-84,81,82,92,5,82,84,19,-17, 
  /* [2][0][][] */ 37,33,-49,87,-27,-61,80,103,-95,81,-37,111,74,-17,76,-105,-52,-31,33,43,-96,-14,104,20,-22,67,92,15,-51,66,69,81,-71,-24,-90,-104,-72,83,127,-30,-114,-76,10,-3,-82,104,-30,-70,88,34,77,-89,-32,53,16,10,-67,83,-61,6,-23,88,-40,56,80,38,46,77,-96,58,13,-74,28,-75,52,32,-57,-21,3,7,30,-91,-15,-46,-3,-96,-21,-37,79,101,-5,-2,-47,-85,-50,-70, 
  /* [3][0][][] */ 79,-1,35,-22,-85,31,-116,29,56,-2,68,-6,115,102,73,4,102,110,-52,25,127,-91,-70,-124,-39,-116,-79,109,37,-86,92,13,-50,-33,-13,-15,-107,-24,22,55,-23,-92,-102,-14,77,31,-47,-91,76,-94,52,-4,101,35,92,-97,-114,-115,-117,-66,-92,17,-36,89,48,-36,-64,-27,-36,-71,7,114,26,-114,47,-54,40,98,101,-64,-90,-123,44,102,30,49,-43,-118,-80,46,-7,-102,101,-94,-95,46, 
  /* [4][0][][] */ 53,86,-13,51,-39,-27,31,1,57,56,-4,25,38,-28,-10,-61,-33,3,-56,31,103,-79,74,22,-45,-6,62,-61,-59,42,-57,-40,69,107,22,-95,-66,0,-127,48,-39,-51,-65,-97,32,97,37,51,25,-54,-6,-62,-82,47,-72,25,44,-79,28,9,16,-88,-24,-52,-40,51,2,-27,31,-89,-84,-66,-43,19,87,41,61,-24,-4,-51,8,-33,-79,-14,0,66,81,6,-97,-62,27,64,34,88,-79,-16, 
  /* [5][0][][] */ 108,-99,81,67,43,-116,28,34,100,-123,-2,-69,38,97,36,38,65,68,-90,115,31,50,15,-32,-116,-59,-17,-98,44,41,21,-101,-36,-1,-72,21,-127,-37,23,24,-93,-56,42,104,-36,30,41,-67,-117,118,14,41,16,13,42,-19,104,42,-53,-49,30,-88,47,-64,-27,112,-37,21,88,4,90,-90,-53,90,-44,-83,17,-59,10,88,120,29,11,125,-85,89,-11,47,71,-106,116,106,-23,31,85,-80, 
  /* [6][0][][] */ 16,-29,127,77,-66,-58,6,76,-11,-61,12,-70,79,60,120,-104,58,5,4,97,-72,-104,118,68,-40,-76,-3,-39,-3,-110,49,-75,-85,-112,-38,-88,21,41,-84,81,86,59,28,3,-103,104,-84,-32,-74,39,-27,-61,69,-52,96,-24,15,-5,-58,124,-92,44,67,-68,-49,68,107,-44,78,-2,-87,-2,61,-63,-52,-23,-73,-80,-46,-23,36,-19,44,-26,-62,-76,-31,-90,85,95,113,14,-46,-61,73,-26, 
  /* [7][0][][] */ 120,63,-48,-41,-98,94,-19,-8,119,-25,-96,-3,62,-86,46,69,41,20,-1,117,58,35,-9,84,-98,98,44,48,-91,97,-19,39,29,27,69,94,-124,89,-26,-25,97,-75,84,52,52,-1,106,-112,56,-79,-104,-69,-29,90,20,35,119,-87,8,-63,13,-29,75,-109,-71,-55,67,27,-127,21,64,89,87,23,47,52,-62,49,-99,43,92,-34,-14,-72,85,35,-110,95,85,8,75,65,-52,-42,0,-66, 
  /* [8][0][][] */ 17,29,-53,-93,53,33,-75,-37,6,36,44,94,22,-44,-85,-75,-74,98,-68,27,35,-28,77,107,-127,99,48,69,-81,29,-87,123,99,-31,51,-3,105,6,-40,72,83,104,-111,-123,-9,-25,-19,102,23,-95,-57,5,-79,-5,-27,-101,48,107,-91,97,117,20,49,117,-27,-43,-26,102,-77,53,22,1,77,73,-6,14,-41,98,82,71,39,79,-108,-78,27,43,73,-36,40,-35,-100,110,-77,-96,-40,67, 
  /* [9][0][][] */ 8,-2,103,46,111,-95,-55,-115,35,44,-14,44,-35,-77,-113,-28,-1,-10,-99,-76,0,90,-117,-114,114,-20,-22,14,-12,-44,-98,97,58,-5,31,-28,-84,14,-31,-47,40,-76,46,-101,70,11,-99,58,49,-18,-76,-41,74,-74,-77,91,90,-56,-14,-6,-84,97,90,-85,-79,-4,95,45,-37,93,106,-89,4,74,-99,-105,-85,-127,-47,95,24,31,104,20,-54,-95,28,-23,96,26,-40,114,115,-6,63,-45, 
  /* [10][0][][] */ -62,80,85,-68,-43,76,113,20,42,8,25,-88,110,86,-37,7,-48,88,-103,-60,-15,29,56,-75,8,53,-119,-127,-65,79,-98,-82,93,106,127,70,-62,9,-55,38,-35,122,-118,-56,-100,-59,-1,-63,1,-20,44,10,60,25,-64,-32,-102,-15,35,-54,2,59,114,47,119,-79,-102,-20,8,-23,-101,-66,92,66,-100,106,-13,60,70,20,81,1,62,110,-107,73,104,-24,41,11,-18,-72,-53,-54,-44,-70, 
  /* [11][0][][] */ 127,5,-12,88,85,61,45,26,87,63,-53,80,-12,-47,24,-45,-45,-76,43,23,19,57,16,-76,-76,-76,-15,49,58,13,16,-19,-67,-51,68,29,-50,60,-12,-32,-19,72,-56,1,-28,-47,-63,-52,54,76,109,38,-70,-61,11,17,-5,-36,11,-64,-46,61,82,0,23,60,-38,35,83,39,-55,-56,29,83,-48,36,-52,22,-29,66,-81,18,-43,-37,32,-49,6,-24,-72,5,18,-80,-41,-28,-21,-31, 
  /* [12][0][][] */ 6,61,-50,-5,86,1,-38,33,-76,53,-19,13,-53,7,40,-76,-92,-36,-47,-83,18,-13,13,86,-58,-52,86,-90,92,3,-39,99,-86,-70,-49,10,3,-75,-9,33,100,31,-106,-38,-25,-83,-43,105,-47,-96,-78,90,37,-5,-83,71,-22,-60,45,61,47,127,-11,43,97,25,-46,102,46,89,39,61,73,99,-5,-5,-40,32,-112,-91,-59,91,37,6,-38,25,46,99,-92,-106,93,32,88,-19,19,64, 
  /* [13][0][][] */ 112,-57,103,86,100,127,71,46,65,-98,5,-19,100,64,57,-50,-115,-74,-76,43,62,-38,112,-56,-65,54,0,20,-96,-76,87,46,45,98,-24,45,-81,-33,3,63,-65,73,-60,15,-47,30,-2,-44,33,116,-40,-93,-113,25,106,-81,-52,24,-28,-81,-32,114,-65,28,-46,-60,-105,81,-22,-11,87,-9,-97,50,-91,-47,-98,60,74,-62,59,-103,88,31,-77,-105,90,127,-17,-57,-85,70,111,-46,75,4, 
  /* [14][0][][] */ -57,-99,78,58,62,-29,-19,-127,-81,-36,67,80,-37,-84,-91,-93,-57,-58,-3,29,-44,26,-10,57,-117,-70,-33,22,-117,-110,-77,43,102,-24,-43,4,88,116,21,-112,-5,-111,22,85,65,-106,65,-89,113,38,78,55,82,-15,-13,14,-56,-10,47,84,-16,-95,-24,76,-113,-9,68,-114,-86,-106,-104,87,-9,83,34,-82,58,-117,51,24,48,-29,-121,-32,-114,-88,-120,111,107,9,72,-44,81,98,-11,54, 
  /* [15][0][][] */ 24,-30,-35,83,84,-98,69,-99,68,-12,-69,-5,117,9,-89,-118,78,18,-92,18,58,24,77,115,70,55,48,92,18,52,70,-108,11,14,-58,-9,-84,123,112,-63,22,122,-46,-39,31,-78,-39,-76,-2,-99,6,19,-97,-98,-50,1,80,60,-42,113,-37,-80,-9,107,-44,102,-69,11,-71,7,70,-67,25,-20,59,-113,-4,57,115,81,-84,69,-103,-65,-127,-32,-92,37,97,78,-122,-50,64,107,-109,111, 
  /* [16][0][][] */ -59,5,105,-68,50,124,-62,25,43,55,-111,82,-7,-55,-53,-58,112,77,65,79,107,70,-44,52,-32,70,-67,66,-107,27,49,23,-103,73,60,67,-32,61,-69,-74,29,-49,69,95,67,110,112,-28,-60,-102,2,123,-57,112,74,49,19,86,67,10,112,103,46,81,69,22,-48,89,58,103,-44,-16,24,106,53,83,-1,96,-117,-12,24,-91,52,26,19,106,100,21,72,17,-22,127,69,-24,-73,36, 
  /* [17][0][][] */ 29,-118,24,77,-52,-121,-74,-102,37,-95,80,42,94,55,-124,43,26,48,105,109,-102,-20,8,-60,19,62,-86,21,100,-61,-40,71,-39,-30,27,-1,-57,95,-91,-38,-104,-48,-21,-17,0,6,80,-119,80,95,-21,20,-23,74,95,-83,-127,82,-94,-121,26,-107,69,92,-93,-83,37,-112,-119,-9,104,23,9,-127,-74,61,111,-56,36,-66,4,-23,-85,-101,-122,67,75,-41,14,71,-104,-127,-19,91,6,10, 
  /* [18][0][][] */ -94,91,98,-71,-17,-103,-108,4,-11,67,-112,-53,-50,29,57,-67,12,-31,53,-23,96,-52,13,-83,19,-110,-23,101,23,34,-6,44,37,-35,-103,-119,-44,31,-28,59,-47,-8,-51,-18,-122,11,23,-5,10,-33,76,32,-116,-15,4,82,-50,29,-18,-127,80,99,15,29,-70,-124,-37,86,57,-75,-78,103,-103,-49,-98,-113,43,47,-7,-85,-63,-14,-31,-74,95,-39,62,65,-115,-73,-73,111,81,-61,52,-21, 
  /* [19][0][][] */ 17,29,83,41,60,-90,98,104,97,-67,28,-14,-101,32,-60,62,74,-111,121,56,-25,82,-58,12,81,-85,28,-65,-97,-126,-70,44,80,-88,32,-2,8,-74,-33,-106,43,-122,-87,8,-92,28,76,-98,-31,36,-44,44,-24,13,3,-13,22,102,-4,-28,54,-47,100,61,-74,-5,-28,-3,-13,54,81,-54,-66,-127,-60,-79,-27,-117,13,113,57,-120,-33,78,-92,-10,8,-7,90,28,4,62,-37,116,70,-52, 
  /* [20][0][][] */ -7,76,73,110,-89,87,31,80,28,11,-78,-3,-8,102,47,-70,-51,-28,-63,-39,37,-31,-66,-68,80,-82,-99,49,31,6,-43,110,106,59,-11,57,43,-31,8,-99,-84,-25,-77,-104,-24,-64,-70,127,70,-126,-91,34,66,127,50,3,118,85,103,101,126,-45,-74,-41,-35,-70,-35,26,-93,-70,-53,94,-52,-91,48,28,106,89,124,117,83,22,100,-32,58,120,-6,69,33,99,37,59,35,23,-9,2, 
  /* [21][0][][] */ 88,64,57,-99,75,-99,64,5,-4,-83,-73,24,13,33,-56,-93,-112,-28,22,-9,101,-52,59,-88,35,-88,-32,60,-5,8,-10,-21,7,17,-89,-114,86,89,-127,-32,-9,4,22,-31,-96,-81,-77,79,-23,-88,-4,72,25,64,-98,27,-51,47,-48,103,54,-98,3,-9,63,23,-40,-65,-110,-6,49,73,28,-27,51,55,-112,-38,54,96,8,92,31,-69,17,-94,55,-81,-100,69,88,-105,-45,-70,60,-29, 
  /* [22][0][][] */ 25,-44,-59,-85,72,-48,97,41,-77,79,-67,-84,127,-97,-104,-74,35,80,-114,-54,84,-65,30,26,77,4,-96,103,-57,-66,-54,-98,39,55,12,17,4,-15,-64,-100,3,-7,6,83,50,-100,82,-25,-61,-86,-4,-16,-75,-84,-45,33,-25,-20,-20,-27,98,-70,-70,-91,-64,20,-101,-36,95,100,-21,2,-57,4,51,-75,41,-45,59,93,100,-95,-67,-97,74,75,93,-23,-46,29,-53,55,18,22,-28,100, 
  /* [23][0][][] */ 57,-75,10,46,88,-105,-5,-115,51,-75,76,79,41,-107,14,-36,84,-30,-109,105,88,-86,100,-38,-18,-2,80,27,58,52,77,-29,-29,39,9,44,94,-3,-127,1,-95,4,6,-104,-61,-78,114,7,78,-98,-89,-42,61,-59,-50,96,-88,-21,86,38,-109,-98,-42,6,37,40,-121,-109,63,-12,93,-71,-12,-23,-50,-89,48,-21,83,117,-43,-59,16,-85,96,10,109,-13,-88,40,96,3,96,-47,-25,90, 
  /* [24][0][][] */ -55,-35,-92,-47,-73,-123,-51,-85,68,88,76,39,127,61,-34,-101,-70,53,19,-30,102,-67,-43,-34,18,-15,73,51,78,61,9,-43,49,22,66,37,-50,-59,38,-3,-48,-71,83,-5,30,-26,50,65,-34,-43,-4,16,57,71,58,-46,20,76,27,1,99,-20,44,96,-76,85,-37,-59,-91,42,-43,-4,-23,32,97,86,60,-62,-80,-58,-58,-69,-39,-87,7,66,-6,-73,39,-87,2,-52,-2,25,-93,25, 
  /* [25][0][][] */ -53,-47,-44,12,87,-13,-57,83,52,-54,-10,44,38,5,-53,13,-27,51,40,-119,48,112,16,-8,61,-38,-88,48,104,-99,46,95,73,-101,67,58,127,-43,13,-10,-65,94,-79,42,101,43,70,61,-91,94,-82,20,59,-34,-37,-1,-26,47,-88,103,88,95,36,24,10,90,19,-6,-75,2,-8,-113,44,-95,81,43,65,96,35,15,58,45,-50,70,-43,-32,-74,-81,-25,-6,119,-3,-114,38,-1,-76, 
  /* [26][0][][] */ 51,-110,-33,-15,-52,27,-14,-21,-99,-127,93,62,-71,-45,4,-16,88,25,-81,-44,10,58,82,5,35,59,8,30,-8,37,-85,2,-26,-55,-87,-98,-80,76,-56,96,-89,89,45,20,-66,64,-36,86,-21,6,-3,95,-3,-40,-7,-97,90,56,40,17,2,-114,71,-17,108,-21,-57,50,-51,64,69,84,67,-78,-82,-3,41,-105,-90,9,-28,70,71,-66,68,-2,-45,13,-77,99,-3,41,-47,96,49,75, 
  /* [27][0][][] */ 8,6,-71,-110,-108,-76,-77,-19,41,106,35,-116,-33,55,82,-34,64,-21,62,-91,-102,7,-34,-29,-97,44,-118,-8,64,28,-38,-14,60,68,-99,-93,-97,-72,-117,88,-103,14,26,16,99,22,67,104,90,70,58,-82,-98,-93,-11,-40,105,-29,-122,-85,-64,-66,-40,51,39,-53,-121,106,47,7,-127,4,60,-59,-10,-96,46,-72,88,105,84,-32,117,-63,-82,-91,-39,28,-55,-8,-39,-57,55,14,87,55, 
  /* [28][0][][] */ 90,-12,81,41,-124,-59,-106,-84,-45,-119,54,70,-80,-94,-5,97,88,107,-78,81,-34,17,-120,-83,-127,75,-95,-68,-73,-77,-10,-29,-115,9,91,65,10,-119,-46,25,99,36,-102,44,-121,-18,7,42,16,-64,-81,-41,-89,15,46,30,62,-20,82,46,-10,-52,-103,-5,53,69,-29,80,-87,23,-109,-51,65,27,-10,-110,-125,-74,-96,39,-85,-100,110,-39,55,-122,60,-91,-113,-77,-39,-76,-49,48,-90,-76, 
  /* [29][0][][] */ 50,60,69,-49,-76,10,-115,24,101,-9,-88,-88,94,-102,-44,-40,-90,101,35,-71,-77,-29,61,10,-18,5,-44,-17,-84,-13,104,-7,49,2,-81,-50,6,102,17,95,48,107,-41,91,1,104,-55,-18,18,1,54,-97,90,-101,111,44,-93,58,-50,118,-120,127,-98,-56,-63,-63,58,89,92,-84,45,-73,112,75,82,36,112,-52,-27,37,-6,-81,-10,-80,65,116,48,76,-38,97,92,75,-104,17,-5,57, 
  /* [30][0][][] */ 22,-74,-71,30,-101,18,-73,-21,112,-22,-9,-44,-103,15,52,11,-12,30,95,-111,40,-110,-122,6,-117,17,-76,118,-14,-111,-100,-1,-87,-79,-127,-62,9,-25,-9,19,84,-83,-19,93,99,-50,97,54,-78,76,17,-111,96,-59,-18,97,-84,-57,-84,-57,-109,-10,-81,-29,-115,-96,-104,89,-67,108,48,-36,-92,101,34,-93,-61,-80,-84,-66,23,27,-109,-23,-116,22,-112,107,-42,-126,76,55,-35,-11,3,-75, 
  /* [31][0][][] */ 66,-71,38,106,46,50,-50,-79,-18,-18,-66,-73,127,-98,-40,93,-51,-74,72,38,51,30,-25,86,39,-95,29,40,-61,-62,38,88,16,17,-76,-2,80,-27,-36,-91,48,-56,-26,25,3,-46,-34,19,59,19,77,-26,-80,-48,-68,18,-97,75,1,96,-33,3,69,-63,56,91,-36,-63,58,-100,-92,11,-81,-36,2,14,-50,-37,41,96,-63,-22,45,58,45,78,-73,13,14,-44,-67,-47,10,84,-5,-22, 
};
const TfArray<4, int> tensor_dimension5 = { 4, { 32,1,1,96 } };
const TfArray<32, float> quant5_scale = { 32, { 0.0017253718106076121, 0.0018556930590420961, 0.0019546062685549259, 0.0017585953464731574, 0.0020529627799987793, 0.0016853867564350367, 0.0018994801212102175, 0.0018351762555539608, 0.0018368554301559925, 0.0018386595183983445, 0.001754411612637341, 0.0025184922851622105, 0.0019787459168583155, 0.0018229699926450849, 0.0018556076101958752, 0.0017559869447723031, 0.0018078851280733943, 0.0017996308160945773, 0.0018044286407530308, 0.0017503239214420319, 0.0017830326687544584, 0.0019336136756464839, 0.0020569195039570332, 0.0019226287258788943, 0.0021657550241798162, 0.0020373200532048941, 0.0020391910802572966, 0.0017355349846184254, 0.0017642499879002571, 0.001816583564504981, 0.0017794201849028468, 0.0022306125611066818, } };
const TfArray<32, int> quant5_zero = { 32, { 0,0,0,0,0,0,0,0,0,0,0,0,0,0,0,0,0,0,0,0,0,0,0,0,0,0,0,0,0,0,0,0 } };
const TfLiteAffineQuantization quant5 = { (TfLiteFloatArray*)&quant5_scale, (TfLiteIntArray*)&quant5_zero, 0 };
const ALIGN(16) int32_t tensor_data6[96] = { -1942, 2536, 6527, 2674, -3533, -3214, 15940, 1675, 2491, -1453, 8165, -271, -4508, 1738, 12650, 5316, 14477, 4023, -3342, -4741, 3198, 29107, 19627, 14697, 975, 756, 3237, 1958, 1770, -3825, 5298, -2009, -236, 3879, 39, 666, 8575, 3363, -1266, 4227, 4987, 4798, 4155, 9043, 3368, 3724, 1231, 5573, 4022, -4299, -5547, 326, -143, -1021, 1835, -18, 162, -786, -3376, 9930, -812, 1265, -1082, -1561, -3043, 4619, 19127, 1707, -1804, 590, 1242, 1689, 1269, -975, 624, 7135, -416, 16586, 15118, -783, 6669, 1586, -417, 1002, 9121, 6362, 3341, 947, 4630, 3170, -137, -5380, 526, -1760, -1428, -1581, };
const TfArray<1, int> tensor_dimension6 = { 1, { 96 } };
const TfArray<96, float> quant6_scale = { 96, { 0.00033258553594350815, 0.00062286941101774573, 0.00036526328767649829, 0.00032929170993156731, 0.00029874983010813594, 0.00045801280066370964, 0.00020827382104471326, 0.00043388275662437081, 0.00024367326113861054, 0.00045318648335523903, 0.00024039593699853867, 0.00034425361081957817, 0.00056093023158609867, 0.0016121543012559414, 0.00024481044965796173, 0.00022030009131412953, 0.00012912091915495694, 0.00035942843533121049, 0.00058177148457616568, 0.00035629607737064362, 0.00019333462114445865, 9.2252033937256783e-05, 0.00015600913320668042, 0.00011425197590142488, 0.0001999639644054696, 0.00063319416949525476, 0.0009188674739561975, 0.0005475067300722003, 0.00030409489409066737, 0.00051406066631898284, 0.00027811276959255338, 0.00038532624603249133, 0.00023622704611625522, 0.00029809607076458633, 0.00051006919238716364, 0.00036684691440314054, 0.00022329830972012132, 0.00031817733542993665, 0.00044229894410818815, 0.00041764523484744132, 0.00025683233980089426, 0.0005406751879490912, 0.00036479538539424539, 0.0002587063645478338, 0.00057058152742683887, 0.00027094691176898777, 0.00039925813325680792, 0.00038586670416407287, 0.00033391694887541234, 0.00029694160912185907, 0.00028753560036420822, 0.00023857713676989079, 0.000645793741568923, 0.00030229034018702805, 0.00042448713793419302, 0.00040672795148566365, 0.00062334066024050117, 0.00036244187504053116, 0.00045735598541796207, 0.00018706166883930564, 0.0009129816316999495, 0.00056784262415021658, 0.00026013061869889498, 0.00051106349565088749, 0.00061825179727748036, 0.00041356278234161437, 0.00011413985339459032, 0.00022802560124546289, 0.0006238901405595243, 0.00049085193313658237, 0.00029635883402079344, 0.0003025632759090513, 0.001038629561662674, 0.00042483245488256216, 0.00029807310784235597, 0.00030317262280732393, 0.00033180191530846059, 0.00011311002890579402, 0.00012040560250170529, 0.00023639579012524337, 0.00021920748986303806, 0.00020874182519037277, 0.00022042507771402597, 0.0002421144163236022, 0.0002012311015278101, 0.00037507747765630484, 0.00069273996632546186, 0.0003067661018576473, 0.00015384689322672784, 0.0006531400722451508, 0.00032914799521677196, 0.00036517533590085804, 0.00040062976768240333, 0.00059288454940542579, 0.00044438161421567202, 0.00026837113546207547, } };
const TfArray<96, int> quant6_zero = { 96, { 0,0,0,0,0,0,0,0,0,0,0,0,0,0,0,0,0,0,0,0,0,0,0,0,0,0,0,0,0,0,0,0,0,0,0,0,0,0,0,0,0,0,0,0,0,0,0,0,0,0,0,0,0,0,0,0,0,0,0,0,0,0,0,0,0,0,0,0,0,0,0,0,0,0,0,0,0,0,0,0,0,0,0,0,0,0,0,0,0,0,0,0,0,0,0,0 } };
const TfLiteAffineQuantization quant6 = { (TfLiteFloatArray*)&quant6_scale, (TfLiteIntArray*)&quant6_zero, 0 };
const ALIGN(16) int8_t tensor_data7[96*1*1*16] = { 
  /* [0][0][][] */ -37,100,5,-127,-40,-26,-35,-71,-26,11,-7,73,28,-53,-17,56, 
  /* [1][0][][] */ -32,24,-69,-8,-33,-34,19,-79,51,60,-64,21,-2,-6,47,-127, 
  /* [2][0][][] */ -2,9,-50,59,29,35,-39,-88,127,-59,-31,-6,-16,125,-81,24, 
  /* [3][0][][] */ 46,-63,11,-108,15,-25,1,4,127,8,87,53,-9,42,17,125, 
  /* [4][0][][] */ -122,87,15,39,14,-17,-8,37,-17,-7,7,-46,-127,-35,-27,66, 
  /* [5][0][][] */ -9,91,126,-3,17,84,-96,81,-71,76,-29,-48,47,-60,-127,32, 
  /* [6][0][][] */ 54,-60,114,-127,37,-5,-53,110,-78,-98,46,-27,4,99,-18,83, 
  /* [7][0][][] */ 33,111,-19,-53,94,17,6,-38,127,93,-18,26,38,-16,55,39, 
  /* [8][0][][] */ 13,-92,6,-88,19,-59,12,-77,19,54,64,-14,21,127,81,63, 
  /* [9][0][][] */ 15,-30,1,127,47,-9,33,-53,-56,114,40,-16,-10,-56,-11,-14, 
  /* [10][0][][] */ -17,25,-47,-127,5,4,-3,29,23,-45,7,-35,-15,-50,-6,32, 
  /* [11][0][][] */ 2,20,13,-20,75,-30,92,-70,-91,24,-15,19,8,127,-65,-22, 
  /* [12][0][][] */ 52,-13,-127,-14,15,-68,11,1,-2,43,-86,-40,-46,90,10,24, 
  /* [13][0][][] */ -11,11,-23,9,7,-127,-5,19,2,-15,11,-4,8,-13,6,10, 
  /* [14][0][][] */ 19,-21,106,-27,71,12,-127,-89,-11,-38,41,32,8,-63,-25,-40, 
  /* [15][0][][] */ -76,16,-19,-53,-6,5,127,37,-37,43,86,-32,-3,74,68,6, 
  /* [16][0][][] */ 20,67,127,93,-8,16,98,64,-105,-1,-86,-20,2,8,9,-77, 
  /* [17][0][][] */ -31,-102,-14,27,-71,-22,-57,10,-127,-36,7,-50,1,38,52,-34, 
  /* [18][0][][] */ -7,45,13,68,47,11,27,3,80,48,-22,-33,10,127,54,17, 
  /* [19][0][][] */ 2,-3,30,5,89,26,-77,-76,-103,-84,-50,-127,-26,-46,7,-24, 
  /* [20][0][][] */ 85,-44,-72,-42,-3,-115,3,13,-65,21,-127,-31,13,8,33,11, 
  /* [21][0][][] */ 80,-6,111,-11,3,24,21,126,14,-103,127,27,-1,122,41,90, 
  /* [22][0][][] */ -24,53,-43,127,-59,10,96,55,-21,20,-35,22,22,8,24,4, 
  /* [23][0][][] */ 80,-3,103,-95,56,-19,-14,44,0,5,-15,-48,16,-19,-127,33, 
  /* [24][0][][] */ -127,35,10,-13,6,106,25,-17,2,26,110,-3,-87,23,65,-36, 
  /* [25][0][][] */ 25,23,12,19,9,7,63,-54,-8,-127,-21,-25,-6,-32,13,23, 
  /* [26][0][][] */ -40,-10,0,11,-45,-10,-40,-33,-104,-39,-2,-26,23,127,-38,55, 
  /* [27][0][][] */ 0,28,5,63,36,-31,-20,-37,51,7,-30,-4,6,127,-7,16, 
  /* [28][0][][] */ 19,57,65,63,127,-7,19,44,-77,-12,-39,-24,5,89,40,-40, 
  /* [29][0][][] */ 6,-7,2,13,25,-6,1,33,-21,-12,-26,-127,-5,-17,-14,5, 
  /* [30][0][][] */ -23,84,-45,76,-36,-14,47,-127,-38,59,-10,1,57,40,75,81, 
  /* [31][0][][] */ -43,-27,-6,-71,1,6,-51,-121,31,95,-3,-127,-41,-53,-1,19, 
  /* [32][0][][] */ -127,-88,-15,58,50,32,-22,13,-10,-51,-117,51,74,5,68,78, 
  /* [33][0][][] */ -14,-42,-52,-12,-105,-18,-97,-6,62,12,5,-60,39,-122,127,39, 
  /* [34][0][][] */ 43,-11,60,20,40,13,-51,77,-85,-49,61,17,17,-10,-14,127, 
  /* [35][0][][] */ -28,50,-78,17,-18,-24,32,-127,84,84,-94,-6,0,6,83,-122, 
  /* [36][0][][] */ -43,29,2,127,27,15,115,1,-22,33,-36,-20,-21,-3,-55,-31, 
  /* [37][0][][] */ 18,-15,12,-77,7,-9,-51,-43,-76,0,2,-2,12,-127,67,-35, 
  /* [38][0][][] */ 48,74,-15,-71,127,-15,24,-42,118,72,-11,9,18,-30,60,19, 
  /* [39][0][][] */ -33,67,-5,-127,-18,13,-37,28,39,-79,-30,-24,20,68,39,35, 
  /* [40][0][][] */ -1,-24,13,-84,-4,-18,-12,-25,-127,-7,-16,-27,-9,-97,80,-55, 
  /* [41][0][][] */ -16,-19,-47,-21,-1,-37,13,-14,-37,11,-55,-15,-127,6,29,38, 
  /* [42][0][][] */ 127,97,-26,-22,-77,-51,-18,-69,4,27,101,-60,-64,42,102,-123, 
  /* [43][0][][] */ -36,107,-66,-7,54,-12,122,-48,43,65,-35,-10,44,-127,-77,-46, 
  /* [44][0][][] */ -35,-15,-1,-42,44,-3,-77,-127,-24,-16,3,-2,-7,-39,68,-54, 
  /* [45][0][][] */ -25,56,-127,-35,35,-68,36,-84,19,40,17,-84,39,-39,49,-29, 
  /* [46][0][][] */ 8,2,-19,-86,-18,15,28,-38,-127,-30,1,8,-11,-124,66,-34, 
  /* [47][0][][] */ 9,55,23,-22,127,-18,-32,14,-65,38,-12,21,9,-6,124,-18, 
  /* [48][0][][] */ -127,-90,-32,40,65,7,1,-15,5,-11,-110,51,59,16,91,46, 
  /* [49][0][][] */ 5,-2,95,71,106,-5,46,26,-127,-58,-39,-72,22,122,16,-48, 
  /* [50][0][][] */ 40,-15,-85,-5,36,-127,-34,-22,-12,-15,6,-33,46,-16,-14,2, 
  /* [51][0][][] */ -3,36,37,8,22,4,5,16,-127,49,0,-111,5,-101,-20,91, 
  /* [52][0][][] */ -14,64,7,49,50,-7,17,50,71,110,-25,-54,23,127,90,25, 
  /* [53][0][][] */ -2,-56,-24,-20,-97,-15,-93,9,43,17,5,-64,37,-127,126,22, 
  /* [54][0][][] */ 39,-7,-36,14,127,84,-102,-37,-71,-5,-24,-78,5,-40,-21,-42, 
  /* [55][0][][] */ 53,-5,9,6,43,-38,-70,-127,-30,-66,-49,17,-5,-24,14,-11, 
  /* [56][0][][] */ -20,10,21,-25,-10,-31,-101,67,-14,127,-11,-18,34,3,-1,12, 
  /* [57][0][][] */ 5,21,-42,-16,-46,-44,127,87,-22,30,-10,-4,28,29,112,-13, 
  /* [58][0][][] */ 56,21,-127,41,101,105,-33,63,-99,-41,3,17,-27,31,-5,-29, 
  /* [59][0][][] */ -91,63,102,18,-74,-66,115,127,24,9,28,-10,14,15,73,2, 
  /* [60][0][][] */ 5,-5,-57,-5,14,-127,-23,-8,-16,-25,-18,-30,27,-13,6,12, 
  /* [61][0][][] */ 15,-11,24,127,72,20,32,7,-91,-8,12,34,-9,21,31,-50, 
  /* [62][0][][] */ -50,127,15,-52,-34,-11,-75,51,-29,-69,-96,-66,-5,-97,-54,-34, 
  /* [63][0][][] */ -39,29,-25,127,-75,14,-68,-40,-60,-27,-36,-48,27,66,36,37, 
  /* [64][0][][] */ 5,6,8,44,8,12,-11,67,30,6,-6,-39,-11,-127,47,-5, 
  /* [65][0][][] */ -15,-36,12,-118,45,-33,77,-38,-19,36,-3,-127,-6,5,12,-46, 
  /* [66][0][][] */ 44,-12,79,-14,17,7,-12,127,21,-60,81,49,0,113,19,63, 
  /* [67][0][][] */ -2,60,-12,-127,-9,2,-54,37,88,-108,-25,-10,37,86,72,33, 
  /* [68][0][][] */ -42,46,127,7,5,12,3,-8,-49,-27,-15,-43,16,-25,87,-25, 
  /* [69][0][][] */ 127,82,-5,5,-76,-26,-19,-25,13,24,94,-54,-58,63,55,-98, 
  /* [70][0][][] */ 41,10,-53,-7,-27,32,64,127,-32,94,-36,1,19,75,-31,16, 
  /* [71][0][][] */ 11,-6,-7,7,4,-82,-5,32,-31,24,-71,11,-127,0,45,47, 
  /* [72][0][][] */ 21,19,-127,21,22,19,22,115,-37,-16,12,-4,22,25,-8,1, 
  /* [73][0][][] */ -49,31,38,2,42,-26,-67,-127,14,-77,29,-22,18,-47,30,-11, 
  /* [74][0][][] */ 2,21,35,127,11,-15,-105,94,-83,5,-66,57,19,-117,47,-93, 
  /* [75][0][][] */ -7,23,-55,7,13,-13,9,2,107,25,-19,1,22,127,-35,7, 
  /* [76][0][][] */ 4,-20,3,23,7,-18,-16,69,21,-25,-15,-127,-10,-3,6,8, 
  /* [77][0][][] */ -17,35,-23,127,-59,16,87,99,2,31,-20,26,-5,-21,-7,-7, 
  /* [78][0][][] */ 11,-5,22,-127,42,-42,-50,34,14,-61,-7,-56,24,125,27,54, 
  /* [79][0][][] */ -6,-103,-86,-66,-94,-11,19,-86,127,12,23,51,19,55,50,-48, 
  /* [80][0][][] */ -38,12,101,-91,6,-25,34,-110,-76,30,-69,-127,33,92,65,-34, 
  /* [81][0][][] */ -41,42,-127,24,66,-125,-18,52,-9,-46,60,-4,28,-1,12,-2, 
  /* [82][0][][] */ 127,-4,-2,20,17,-105,-13,20,-13,-7,-95,-4,108,9,-9,20, 
  /* [83][0][][] */ -44,82,-105,-73,-33,-10,54,-125,57,39,-46,-127,19,45,45,97, 
  /* [84][0][][] */ -32,16,51,-39,-4,-32,46,-127,-42,34,-18,-45,29,43,65,5, 
  /* [85][0][][] */ -83,124,23,-127,-81,-35,-32,-5,-63,-8,-80,19,7,-9,-91,-25, 
  /* [86][0][][] */ -9,8,-26,6,-27,-24,127,17,0,-28,-7,3,13,31,76,-20, 
  /* [87][0][][] */ -28,-38,5,-117,11,-32,57,-15,-2,20,-6,-127,-20,5,8,-42, 
  /* [88][0][][] */ 111,-36,45,-18,29,-127,-9,29,-68,34,-122,-67,49,29,86,7, 
  /* [89][0][][] */ 29,-22,-37,-61,35,-18,-35,-1,-42,16,42,-60,127,-13,33,-40, 
  /* [90][0][][] */ -10,-41,43,-52,74,4,-66,85,52,-84,-36,-25,-13,96,12,-127, 
  /* [91][0][][] */ -48,0,-12,-45,13,-7,-22,-87,-1,49,-15,-127,-19,-20,-5,23, 
  /* [92][0][][] */ -27,24,42,19,1,-127,17,-2,3,-24,-3,-16,1,-22,17,4, 
  /* [93][0][][] */ 41,-21,127,-8,-44,58,24,-23,-16,30,-61,-14,-24,1,32,0, 
  /* [94][0][][] */ 29,5,-11,-18,29,-2,-10,-5,-28,-15,18,-59,127,-15,26,-34, 
  /* [95][0][][] */ 127,80,-4,34,-91,-16,-55,-13,-22,-18,73,-43,-47,36,69,-72, 
};
const TfArray<4, int> tensor_dimension7 = { 4, { 96,1,1,16 } };
const TfArray<96, float> quant7_scale = { 96, { 0.00070771208265796304, 0.0013254100922495127, 0.00077724742004647851, 0.00070070312358438969, 0.00063571275677531958, 0.00097461004042997956, 0.00044318794971331954, 0.0009232634911313653, 0.00051851477473974228, 0.00096434005536139011, 0.00051154091488569975, 0.00073254067683592439, 0.0011936090886592865, 0.0034305192530155182, 0.00052093458361923695, 0.00046877877321094275, 0.00027475770912133157, 0.00076483137672767043, 0.0012379573890939355, 0.00075816595926880836, 0.00041139867971651256, 0.00019630402675829828, 0.00033197339507751167, 0.00024311791639775038, 0.00042550533544272184, 0.0013473802246153355, 0.0019552672747522593, 0.0011650450760498643, 0.00064708659192547202, 0.0010938748018816113, 0.00059179897652938962, 0.00081993959611281753, 0.00050266989273950458, 0.00063432159367948771, 0.0010853813728317618, 0.00078061723615974188, 0.00047515871119685471, 0.00067705271067097783, 0.00094117235857993364, 0.00088871148182079196, 0.000546516093891114, 0.0011505081783980131, 0.00077625177800655365, 0.00055050384253263474, 0.0012141461484134197, 0.00057655066484585404, 0.00084958539810031652, 0.0008210896048694849, 0.00071054522413760424, 0.00063186499755829573, 0.00061184988589957356, 0.0005076706875115633, 0.0013741909060627222, 0.00064324663253501058, 0.00090327044017612934, 0.00086548045510426164, 0.0013264127774164081, 0.00077124370727688074, 0.00097321235807612538, 0.00039805038250051439, 0.0019427427323535085, 0.0012083180481567979, 0.00055353454081341624, 0.0010874971048906446, 0.0013155841734260321, 0.00088002439588308334, 0.0002428793377475813, 0.00048521795542910695, 0.0013275820529088378, 0.0010444887448102236, 0.00063062494155019522, 0.00064382742857560515, 0.002210110193118453, 0.00090400525368750095, 0.00063427275745198131, 0.00064512406243011355, 0.00070604460779577494, 0.00024068796483334154, 0.00025621228269301355, 0.00050302897579967976, 0.00046645381371490657, 0.00044418382458388805, 0.00046904472401365638, 0.00051519769476726651, 0.00042820165981538594, 0.00079813110642135143, 0.0014740882907062769, 0.00065277062822133303, 0.00032737234141677618, 0.0013898232718929648, 0.00070039730053395033, 0.0007770602242089808, 0.00085250410484150052, 0.0012616049498319626, 0.00094560411525890231, 0.0005710695986635983, } };
const TfArray<96, int> quant7_zero = { 96, { 0,0,0,0,0,0,0,0,0,0,0,0,0,0,0,0,0,0,0,0,0,0,0,0,0,0,0,0,0,0,0,0,0,0,0,0,0,0,0,0,0,0,0,0,0,0,0,0,0,0,0,0,0,0,0,0,0,0,0,0,0,0,0,0,0,0,0,0,0,0,0,0,0,0,0,0,0,0,0,0,0,0,0,0,0,0,0,0,0,0,0,0,0,0,0,0 } };
const TfLiteAffineQuantization quant7 = { (TfLiteFloatArray*)&quant7_scale, (TfLiteIntArray*)&quant7_zero, 0 };
const ALIGN(16) int32_t tensor_data8[16] = { -8265, 16108, -19098, -2963, -7037, 14189, 30730, -52226, 387, 18512, 25402, 13755, -10124, 13928, -8773, 7310, };
const TfArray<1, int> tensor_dimension8 = { 1, { 16 } };
const TfArray<16, float> quant8_scale = { 16, { 0.00079044286394491792, 0.0004329486982896924, 0.00020707654766738415, 0.00023766553204040974, 0.00036706222454085946, 0.00037566196988336742, 0.00035506283165886998, 0.00030800324748270214, 0.00037751096533611417, 0.00026279018493369222, 0.00074457185110077262, 0.00056383106857538223, 0.00037804944440722466, 0.00021472932712640613, 0.00052095181308686733, 0.00050780182937160134, } };
const TfArray<16, int> quant8_zero = { 16, { 0,0,0,0,0,0,0,0,0,0,0,0,0,0,0,0 } };
const TfLiteAffineQuantization quant8 = { (TfLiteFloatArray*)&quant8_scale, (TfLiteIntArray*)&quant8_zero, 0 };
const ALIGN(16) int8_t tensor_data9[16*1*1*96] = { 
  /* [0][0][][] */ -24,-16,-1,-36,17,-2,-37,-3,13,6,-5,9,-10,-6,-31,6,5,12,0,-7,8,-32,10,4,8,10,-1,127,37,-36,47,-7,2,10,4,1,-13,13,-30,-3,-14,4,5,44,3,11,21,2,28,0,-9,12,20,-24,-13,80,7,5,-26,-41,-4,21,-6,-21,-39,-62,-25,38,11,6,15,-17,-9,-36,1,-24,-32,17,5,12,-13,-25,33,25,1,-13,-13,-93,7,-19,11,0,51,-28,-39,-11, 
  /* [1][0][][] */ 27,-72,-77,-51,127,-9,63,44,-28,-80,-48,-20,-3,-13,-60,51,-58,13,24,38,31,28,-10,-49,6,-5,-12,-69,37,-11,-54,28,-25,35,1,6,4,-12,5,11,-25,38,-34,-12,-31,73,14,4,26,-64,7,-31,-14,36,41,11,-44,-28,-25,-32,29,-20,-18,-37,-69,103,-31,-27,-2,-33,-12,12,45,-102,-23,7,20,-38,48,14,9,-24,30,9,-54,27,-23,25,22,-44,3,0,32,1,34,79, 
  /* [2][0][][] */ -19,69,-86,-2,82,92,25,65,0,-116,12,-3,8,4,34,15,11,-22,-60,65,29,4,74,27,59,43,-19,-39,41,-11,58,-68,36,37,-19,47,-127,-68,46,24,11,-54,12,-24,15,-50,7,73,-16,32,-20,-22,103,-5,-10,45,41,16,31,11,22,23,37,-28,9,-6,-29,-14,-28,8,-28,-45,-64,-82,25,79,63,41,25,-1,24,-36,20,-26,-29,29,20,39,-4,32,2,-19,-3,-50,-59,8, 
  /* [3][0][][] */ 59,30,96,-11,39,-32,12,-23,-21,-73,12,-29,11,33,41,82,16,-9,40,8,115,-3,36,13,60,-19,-18,22,21,47,8,90,-103,14,36,-1,-17,-15,10,57,-78,-33,67,6,14,50,-54,-90,-49,-37,-47,39,5,-127,5,22,-113,79,49,37,6,104,-15,-51,23,63,-2,-52,35,-17,-4,-54,44,-28,64,-11,9,2,40,37,-37,-81,27,-28,-20,14,27,39,35,21,13,39,43,108,41,-28, 
  /* [4][0][][] */ 12,-10,13,1,127,56,-5,-25,-38,-61,-42,-14,-48,30,-11,47,24,-84,-38,87,-18,-3,49,-17,-14,6,4,-61,-1,-14,70,-41,89,29,-27,13,47,37,27,2,-29,-5,-55,-22,2,-64,-20,8,49,17,-31,24,-4,-45,3,-38,42,-19,-42,35,3,61,58,36,44,61,-24,-10,-39,0,41,87,16,-63,-44,-16,14,30,96,-48,-11,-43,25,-24,-73,-1,36,53,-40,28,8,-50,19,4,38,-12, 
  /* [5][0][][] */ -1,-9,-24,10,19,-12,37,-36,-29,-47,-7,15,6,21,-6,4,-1,7,13,-13,29,15,-33,65,13,3,6,-118,-1,36,25,34,-1,-1,8,-54,24,34,5,6,-2,-11,29,-24,-12,-13,10,-29,-15,-11,12,-15,3,-36,-8,-59,5,11,-18,12,66,7,-6,47,2,55,0,66,16,93,7,28,1,9,3,78,-41,-15,11,22,-16,-10,14,16,-5,12,-22,127,11,20,-7,-8,12,10,-53,27, 
  /* [6][0][][] */ 17,-71,7,-47,-35,18,30,20,-4,3,-10,-68,-37,-6,-38,41,28,4,-3,-6,-48,35,21,3,-15,-4,-22,-18,-9,18,46,-2,68,5,62,-1,-12,-13,26,-95,-18,79,8,-30,9,-38,-25,11,-12,32,-33,76,-14,-69,-9,-12,0,-73,1,-4,-17,54,26,-70,43,-25,-2,-17,3,-9,127,2,-50,0,-20,35,-97,2,14,7,25,43,24,10,-18,-7,31,21,13,-2,42,-30,-6,-11,-40,-12, 
  /* [7][0][][] */ 7,127,50,21,106,45,40,-46,-20,-32,30,-10,-17,26,24,7,2,-48,11,27,34,-26,30,17,-8,23,14,11,14,-30,15,18,38,-12,-39,4,23,23,-7,86,-48,30,12,7,-18,-4,30,-15,-23,-23,35,-1,17,-33,-39,38,44,9,-23,6,-21,-37,13,-6,-70,66,-25,-77,-13,-28,-5,60,-4,-21,7,14,66,53,32,-28,-42,-29,-16,-27,-17,57,0,0,-17,35,-36,-36,-44,-8,25,7, 
  /* [8][0][][] */ -17,11,44,19,-127,-15,39,-20,18,73,55,26,-8,15,18,-2,-39,19,24,-7,-40,-4,-85,59,16,-17,45,-22,11,4,-5,40,69,-19,-1,-7,-28,-7,21,33,10,-30,44,5,-43,-4,40,-3,-85,13,17,37,-49,-41,-28,33,11,-50,-75,-21,12,-37,-32,3,-10,83,2,-57,31,-17,-42,-13,25,50,57,9,-37,-42,-22,21,-80,6,3,-10,28,17,49,54,26,-42,43,50,-1,1,34,16, 
  /* [9][0][][] */ -5,-92,4,38,80,79,-24,-41,29,-48,85,101,0,8,107,-111,7,-20,-7,-1,-58,-48,26,-13,-28,31,-13,14,-40,1,17,-9,19,9,-105,18,-2,33,5,70,28,-78,-16,54,-6,-2,-74,-31,45,39,-11,-97,51,24,-30,-66,-10,101,-35,2,7,-65,-36,127,-106,-5,13,-19,-8,43,-62,-71,49,6,-11,32,63,-76,13,-5,-4,-16,25,11,2,-59,34,7,16,-28,-56,40,-70,0,10,-26, 
  /* [10][0][][] */ -50,-21,-37,-44,-28,-3,59,-22,26,21,18,34,30,-6,-13,-13,-10,19,-21,-16,-9,29,24,21,-11,-9,0,-127,21,-41,52,-30,0,22,1,0,-8,34,12,-11,4,-28,20,-37,13,-13,21,7,-3,34,-30,-14,-31,-24,-11,-50,21,7,0,-42,14,3,-13,14,-37,86,-19,-38,23,-33,-5,-12,-42,-5,27,50,-17,33,-17,11,-26,-9,22,13,7,-25,-18,102,5,-9,14,19,19,-40,37,-33, 
  /* [11][0][][] */ -82,26,4,6,10,-58,-16,-9,-42,-12,-6,21,37,18,-20,-22,43,12,-46,-49,15,-7,-8,5,66,16,50,-1,-27,20,-37,14,-14,13,-4,-9,-7,21,26,13,-21,-7,-2,0,71,26,67,17,46,39,-4,30,7,-59,22,-7,-62,-11,-37,-37,-13,-8,-4,20,-18,-28,34,4,18,14,-2,36,-27,24,23,7,-14,78,-127,60,-42,-9,-58,-79,125,20,40,-12,14,48,-33,-54,-21,43,-24,10, 
  /* [12][0][][] */ -9,-9,-37,1,62,25,6,-21,-15,20,22,2,3,-12,28,-18,-37,-19,26,-21,-10,-14,-34,43,-26,45,-24,97,-17,24,-35,2,-13,29,4,21,-17,-10,22,16,5,-17,1,-4,-14,8,21,20,0,-8,-2,-31,-28,7,-7,-7,-13,-14,9,19,-22,-22,13,53,30,-82,11,62,-28,-127,-12,59,11,14,2,77,6,-19,0,-4,4,19,-38,-1,10,-9,-1,-43,-12,16,15,2,-41,40,-12,24, 
  /* [13][0][][] */ -78,64,-1,-20,-60,2,-11,0,-54,-30,53,26,88,11,-34,6,-6,28,-40,-23,14,-7,50,-51,66,29,2,8,8,-23,-22,-94,-91,-30,7,-2,-5,13,49,-7,-40,79,20,3,35,16,2,-5,76,-27,40,72,65,-79,78,-17,-33,51,36,-2,12,47,-16,25,10,-21,7,17,11,26,21,-127,23,-32,-84,6,54,53,-53,-27,92,-19,-12,-33,45,-44,88,22,-16,-3,-21,24,53,-29,-38,13, 
  /* [14][0][][] */ -23,13,-10,-54,38,-3,-11,35,-84,8,21,4,-34,-55,-74,-14,-88,-24,70,14,27,0,14,-104,-34,9,-41,-10,15,-20,-14,-27,-63,-25,17,9,-18,-12,-5,0,3,79,-68,-8,-45,28,5,12,127,-30,24,-9,29,57,-93,26,-28,25,-98,12,11,27,51,20,8,29,-4,12,-50,20,55,29,41,-15,-25,17,64,-68,-24,-96,24,-30,-2,47,25,-60,-37,12,-48,22,38,45,8,42,15,-22, 
  /* [15][0][][] */ -35,-74,-3,-38,4,10,-5,-62,-18,18,-2,-20,44,-16,52,-12,-95,-12,-29,9,-16,10,-78,-36,-14,-1,-6,29,-24,-10,73,-90,-10,21,21,8,-4,14,-100,10,29,-68,-4,22,-29,-51,53,37,55,24,-6,-127,-4,53,-4,35,38,-4,-21,49,19,6,49,-3,12,-11,-7,-8,-26,28,5,29,-40,1,-7,-35,-26,-6,4,4,-5,52,-20,64,-12,-40,-26,-30,-39,70,25,76,-33,-7,2,-12, 
};
const TfArray<4, int> tensor_dimension9 = { 4, { 16,1,1,96 } };
const TfArray<16, float> quant9_scale = { 16, { 0.03359382227063179, 0.018400318920612335, 0.0088007533922791481, 0.010100784711539745, 0.015600143931806087, 0.01596563309431076, 0.015090170316398144, 0.013090137392282486, 0.016044216230511665, 0.011168582364916801, 0.031644303351640701, 0.023962819948792458, 0.016067100688815117, 0.0091259963810443878, 0.022140452638268471, 0.021581577137112617, } };
const TfArray<16, int> quant9_zero = { 16, { 0,0,0,0,0,0,0,0,0,0,0,0,0,0,0,0 } };
const TfLiteAffineQuantization quant9 = { (TfLiteFloatArray*)&quant9_scale, (TfLiteIntArray*)&quant9_zero, 0 };
const ALIGN(16) int32_t tensor_data10[96] = { 18661, 62377, -598, 394, 15039, -3401, 816, -841, 4662, 10688, -3219, -321, 479, 5834, 4684, -9553, -4168, -922, -749, 16577, -12243, 13583, -2852, 5640, 27708, 306, -6739, 17385, 14172, -18856, 1300, 22184, 23169, -10646, 2938, 808, -104, -590, 4320, -7158, -6059, -820, -6717, -361, 31001, -1562, 12838, -1775, -14089, 1034, 55, 83, -1566, 15244, -2973, 16750, 16857, 198, 34315, -3, -8668, -1055, 1095, -284, -2017, 14059, -1100, -7503, -2834, 3145, 332, -4642, 1459, 514, -1572, -6178, -397, -656, 43847, -8860, -6937, -11817, -565, 228, 65305, -12434, -9336, -27986, -8129, 9788, -2667, 37867, -35, -2312, -2912, 1011, };
const TfArray<1, int> tensor_dimension10 = { 1, { 96 } };
const TfArray<96, float> quant10_scale = { 96, { 0.00012824723671656102, 9.1394751507323235e-05, 0.00012956811406183988, 0.00023853946186136454, 0.00023425793915521353, 0.00023595649690832943, 4.6877921704435721e-05, 9.6990661404561251e-05, 0.00026898438227362931, 0.00022617622744292021, 0.00027602785849012434, 0.0001151419201050885, 0.00026195548707619309, 0.00021203917276579887, 0.00042816821951419115, 0.0001696707186056301, 0.00017968546308111399, 0.00015480599540751427, 0.0001917437621159479, 6.845890311524272e-05, 6.0546488384716213e-05, 3.80052333639469e-05, 0.00013652708730660379, 0.00012731210154015571, 9.2927271907683462e-05, 0.0001036503745126538, 0.00016071548452600837, 0.00017676973948255181, 7.383950287476182e-05, 0.00051600072765722871, 0.00039330808795057237, 0.0002559259592089802, 0.00011790592543547973, 0.00014810699212830514, 0.00027025604504160583, 0.00049904658226296306, 0.00038530788151547313, 0.0002177087590098381, 0.00027941280859522521, 9.9089171271771193e-05, 0.00021955130796413869, 0.0002157611888833344, 0.00035906393895857036, 6.6002758103422821e-05, 0.00038256132393144071, 0.00010474651207914576, 0.00011906854342669249, 0.00032216007821261883, 0.00069659907603636384, 0.00011636245471891016, 0.00052932475227862597, 0.00017153311637230217, 0.00031773478258401155, 0.00018192635616287589, 0.00028323521837592125, 0.00010923960508080199, 0.00016466643137391657, 0.00050401972839608788, 4.4469605199992657e-05, 0.00017239879525732249, 0.00030601050821132958, 0.00030570715898647904, 0.0001194668875541538, 0.00014917925000190735, 0.00013858482998330146, 0.00012828371836803854, 0.00029052374884486198, 0.00028705771546810865, 0.00021178759925533086, 0.00012436657561920583, 0.00024880687124095857, 9.9336459243204445e-05, 0.00030815528589300811, 0.00014000154624227434, 0.00043382617877796292, 0.00029881612863391638, 0.00014680733147542924, 6.6623753809835762e-05, 5.8044923207489774e-05, 0.00013653063797391951, 0.00021287225536070764, 0.00023775114095769823, 0.0001492241135565564, 0.00028504934743978083, 5.4239670134847984e-05, 0.00012315901403781027, 7.54881402826868e-05, 0.00051271886331960559, 0.00024305045371875167, 0.00012960833555553108, 0.0003337343514431268, 2.6774678190122359e-05, 0.0001531237066956237, 0.00011540035484358668, 0.00033022832940332592, 0.00030927587067708373, } };
const TfArray<96, int> quant10_zero = { 96, { 0,0,0,0,0,0,0,0,0,0,0,0,0,0,0,0,0,0,0,0,0,0,0,0,0,0,0,0,0,0,0,0,0,0,0,0,0,0,0,0,0,0,0,0,0,0,0,0,0,0,0,0,0,0,0,0,0,0,0,0,0,0,0,0,0,0,0,0,0,0,0,0,0,0,0,0,0,0,0,0,0,0,0,0,0,0,0,0,0,0,0,0,0,0,0,0 } };
const TfLiteAffineQuantization quant10 = { (TfLiteFloatArray*)&quant10_scale, (TfLiteIntArray*)&quant10_zero, 0 };
const ALIGN(16) int8_t tensor_data11[1*3*3*96] = { 
  /* [0][0][][] */ -48,-73,-12,127,22,71,77,-57,-14,-18,-15,-2,-29,-1,37,4,-9,-42,26,21,19,-127,127,7,-80,6,49,-28,-127,-127,39,24,15,26,59,-20,-30,-11,31,-8,-12,28,-110,69,24,-68,38,46,-18,51,-25,19,4,-7,17,47,-92,-50,-61,-18,-11,-1,11,38,67,-25,73,13,-8,16,19,127,23,22,26,0,-11,17,127,-5,-13,13,-28,20,125,21,-79,-15,2,-31,-15,-41,2,-25,-14,26, 127,-127,72,106,-43,127,39,-115,71,4,-18,127,127,-99,-12,17,11,127,127,-112,127,-78,82,68,-127,-117,-65,-34,-54,47,-60,-20,-88,49,-127,-86,-43,-14,-53,66,0,127,127,77,-52,-113,-113,-49,-16,-127,44,84,68,-31,46,81,-47,41,-79,-112,-45,-42,-62,68,73,-60,26,31,-81,33,-18,91,115,127,12,20,2,58,-31,52,65,127,127,-24,-7,76,-115,127,-117,-98,5,-127,-88,-127,-37,103, -76,-15,28,-83,15,-25,66,-5,81,-35,-28,19,-19,-6,-8,-10,-8,-18,7,-4,-22,-97,29,0,-120,93,9,-56,118,50,-15,10,3,14,12,-31,-9,34,19,11,26,12,-120,60,17,-18,37,13,-15,11,-17,4,-10,0,-4,20,-66,8,-33,51,1,39,33,-1,-6,-38,-30,25,9,1,-3,34,10,-27,-5,4,-12,-7,-84,2,-20,-23,-17,4,-109,10,-35,-22,-49,25,-25,-34,30,-25,-14,0, 
  /* [0][1][][] */ -65,-76,71,-37,-48,91,19,127,-51,-22,-1,-116,26,-116,78,32,-2,-59,-16,88,51,-72,47,49,-92,-13,127,-23,-25,64,122,-104,-127,91,-87,-57,-35,32,-28,96,-48,-26,-6,43,-48,127,-23,64,16,95,18,-3,15,-54,28,30,127,122,-73,-86,127,-34,-35,127,71,-38,-16,0,127,37,127,98,-40,105,-7,12,15,14,-32,10,-41,124,-78,110,1,32,-57,30,78,-127,-31,-10,127,-71,-22,1, 67,125,54,-116,127,82,88,38,-127,127,127,-36,-64,-127,-127,127,127,-62,-124,-51,101,90,-124,127,-106,-93,-42,127,-125,109,-127,-127,-90,127,105,127,127,-127,-106,127,-64,-97,111,-127,-127,-33,-127,-127,127,-112,86,43,127,127,127,-127,101,-127,-127,127,19,-78,-127,-98,-127,127,-127,127,-125,-127,-106,-83,-127,-81,127,127,-127,127,-77,127,127,30,-40,-127,61,127,92,46,127,13,127,-2,-67,36,127,-127, -54,-15,-47,38,-57,-97,34,-26,19,-33,-28,91,2,91,14,13,-4,66,-7,126,3,-87,-42,7,-74,101,-70,-21,-68,-17,17,-63,-71,41,4,-19,-29,46,-68,42,127,-5,-38,27,-40,-57,16,44,8,118,-13,6,-38,-71,3,19,97,4,1,20,-36,127,93,-52,-43,13,38,-11,-78,121,-19,-86,-1,-55,-17,-19,27,16,78,-37,-68,-42,58,15,-46,-17,72,23,16,63,-43,19,-42,98,-26,-6, 
  /* [0][2][][] */ -69,1,-5,-22,13,-45,60,23,57,-28,-37,-2,19,18,-26,1,-8,66,8,0,-54,-84,2,-9,-27,-53,36,-69,89,38,26,25,19,-10,-13,-47,-7,36,-4,2,-15,-5,-69,101,3,31,13,37,-15,-30,9,-19,21,-1,9,14,-72,23,-16,14,15,2,-20,-3,0,-46,-47,15,-32,13,25,31,14,-19,27,4,18,3,-79,-11,-6,-8,17,14,-127,6,14,-43,-56,-50,-27,-48,8,57,-18,-9, 121,34,-127,-37,-72,-25,34,31,-64,-28,-20,-106,-76,111,-12,39,2,-49,-8,-127,90,-54,-39,-1,-106,127,-49,20,-34,-22,-8,-5,-61,15,26,6,-23,-27,127,61,12,-13,68,-34,-39,77,-67,-43,-33,-4,-127,-127,-52,-25,0,39,-66,-9,10,39,-8,-17,9,-46,-54,33,64,-23,116,109,-23,-70,11,-58,2,4,101,4,52,19,14,-97,-49,2,1,6,127,39,-56,39,-19,-108,40,80,-9,24, -55,13,-17,26,15,-68,-127,4,-10,-8,-16,2,15,-27,19,-1,-8,-14,5,16,-47,-70,14,0,17,-97,21,3,-47,-40,-6,15,45,-20,-7,-25,-36,4,42,-41,23,-3,-48,-34,2,66,23,16,-9,-3,9,-9,16,6,-5,-5,-62,-14,3,-37,-12,9,85,-12,34,-2,-2,30,1,5,-4,21,-18,17,-2,17,37,-1,76,-13,5,-5,-6,-18,74,-2,42,-37,60,40,-17,-53,-8,3,-14,-17, 
};
const TfArray<4, int> tensor_dimension11 = { 4, { 1,3,3,96 } };
const TfArray<96, float> quant11_scale = { 96, { 0.0054505071602761745, 0.0038842768408358097, 0.0055066449567675591, 0.010137926787137985, 0.0099559621885418892, 0.010028150863945484, 0.0019923115614801645, 0.0041221030987799168, 0.01143183559179306, 0.0096124894917011261, 0.011731184087693691, 0.0048935315571725368, 0.011133108288049698, 0.0090116644278168678, 0.018197149038314819, 0.0072110053151845932, 0.0076366323046386242, 0.0065792547538876534, 0.0081491097807884216, 0.0029095031786710024, 0.0025732256472110748, 0.0016152223106473684, 0.0058024013414978981, 0.0054107643663883209, 0.0039494088850915432, 0.0044051408767700195, 0.0068304082378745079, 0.0075127137824892998, 0.0031381787266582251, 0.02193002961575985, 0.016715593636035919, 0.0108768530189991, 0.0050110016018152237, 0.006294547114521265, 0.011485882103443146, 0.021209478378295898, 0.016375584527850151, 0.0092526217922568321, 0.011875043623149395, 0.0042112898081541061, 0.0093309301882982254, 0.0091698504984378815, 0.01526021771132946, 0.0028051170520484447, 0.016258856281638145, 0.0044517265632748604, 0.0050604129210114479, 0.013691802509129047, 0.029605461284518242, 0.0049454043619334698, 0.022496301680803299, 0.0072901574894785881, 0.013503727503120899, 0.0077318698167800903, 0.012037497013807297, 0.0046426830813288689, 0.0069983229041099548, 0.021420838311314583, 0.001889958162792027, 0.0073269489221274853, 0.013005446642637253, 0.012992554344236851, 0.0050773425027728081, 0.0063401181250810623, 0.0058898548595607281, 0.0054520578123629093, 0.012347259558737278, 0.012199952267110348, 0.0090009728446602821, 0.0052855792455375195, 0.010574291460216045, 0.0042217993177473545, 0.013096599839627743, 0.0059500653296709061, 0.018437612801790237, 0.01269968505948782, 0.0062393117696046829, 0.0028315093368291855, 0.002466909121721983, 0.0058025522157549858, 0.0090470705181360245, 0.010104423388838768, 0.0063420250080525875, 0.012114597484469414, 0.0023051858879625797, 0.0052342577837407589, 0.003208245849236846, 0.021790551021695137, 0.010329644195735455, 0.0055083539336919785, 0.014183709397912025, 0.0011379237985238433, 0.0065077575854957104, 0.0049045151099562645, 0.014034703373908997, 0.01314422395080328, } };
const TfArray<96, int> quant11_zero = { 96, { 0,0,0,0,0,0,0,0,0,0,0,0,0,0,0,0,0,0,0,0,0,0,0,0,0,0,0,0,0,0,0,0,0,0,0,0,0,0,0,0,0,0,0,0,0,0,0,0,0,0,0,0,0,0,0,0,0,0,0,0,0,0,0,0,0,0,0,0,0,0,0,0,0,0,0,0,0,0,0,0,0,0,0,0,0,0,0,0,0,0,0,0,0,0,0,0 } };
const TfLiteAffineQuantization quant11 = { (TfLiteFloatArray*)&quant11_scale, (TfLiteIntArray*)&quant11_zero, 3 };
const ALIGN(16) int32_t tensor_data12[96] = { 1584, 5838, 13377, 25845, 14673, -3464, -1850, 4991, 29642, -3681, 13340, 4314, 7536, 10800, 27950, 1248, 2412, 5847, 11440, 6856, -174, 420, 9549, -1161, 3353, 1, 14741, 5495, 6253, 36123, 40493, 18007, 6251, -604, 9218, 2798, 1213, 3108, 17570, -715, 13822, 8036, 39230, -3451, 28362, 8537, 6591, 12640, 56069, 9192, -477, 8379, -3407, -277, -1996, 5996, -597, 16838, 6319, 7518, 5919, 13706, 5351, 6557, 10972, 7378, 4059, -5203, 7138, -2219, 4585, 8577, 15267, 4658, -3556, -5086, 8106, 297, 1908, -1056, 12437, 13461, 4896, 10446, 3357, 310, 7309, 67731, 7860, 8036, 5053, -174, 6491, 8591, 4856, 13360, };
const TfArray<1, int> tensor_dimension12 = { 1, { 96 } };
const TfArray<96, float> quant12_scale = { 96, { 0.00026431694277562201, 0.00025095525779761374, 0.00014093563368078321, 8.8833825429901481e-05, 0.00020392383157741278, 0.00029294952400960028, 0.00043944065691903234, 0.00032764728530310094, 7.9866920714266598e-05, 0.00037352909566834569, 0.00020228995708748698, 0.00019948337285313755, 0.00016779315774329007, 0.00021470041247084737, 8.4771658293902874e-05, 0.00044696888653561473, 0.00019128902931697667, 0.00020991914789192379, 0.00019500414782669395, 0.0001747125934343785, 0.00037285638973116875, 0.00056280626449733973, 0.0002122979931300506, 0.00055985193466767669, 0.00077606970444321632, 0.00028092219145037234, 0.00015124866331461817, 0.00025611073942855, 0.00026585118030197918, 9.7524098237045109e-05, 7.0174981374293566e-05, 0.00013728119665756822, 0.00026318535674363375, 0.0003601005591917783, 0.00021948243374936283, 0.00021475122775882483, 0.00042352243326604366, 0.00046759084216319025, 0.0001536883064545691, 0.0008042778936214745, 0.00013435751316137612, 0.0001983033143915236, 6.9140078267082572e-05, 0.00029967341106384993, 0.00011532083590282127, 0.00017971740453504026, 0.00026279085432179272, 0.00021329296578187495, 7.3766990681178868e-05, 0.00022943373187445104, 0.00024121551541611552, 0.00020285695791244507, 0.00031764397863298655, 0.00025330737116746604, 0.00052039878210052848, 0.00018662639195099473, 0.00017282855696976185, 0.00011133433872601017, 0.00032247183844447136, 0.00019677571253851056, 0.00027452781796455383, 0.00010325833864044398, 0.00027203062199987471, 0.00015424998127855361, 0.00022435218852479011, 0.00025946009554900229, 0.00032294815173372626, 0.00025294191436842084, 0.00023456408234778792, 0.00031526165548712015, 0.00024017026589717716, 0.00018348210141994059, 0.00013385224156081676, 0.00022154024918563664, 0.00043176868348382413, 0.00026872762828134, 0.0001991575991269201, 0.0004042038053739816, 0.00038189932820387185, 0.00036642569466494024, 0.00016389362281188369, 0.0001228733453899622, 0.00018042886222247034, 0.00018302715034224093, 0.00035100762033835053, 0.00027661293279379606, 0.00032235230901278555, 5.6970613513840362e-05, 0.00017659232253208756, 0.00028109963750466704, 0.00024921420845203102, 0.00040927476948127151, 0.0002279184409417212, 0.00018518275464884937, 0.00022875674767419696, 0.00013025956286583096, } };
const TfArray<96, int> quant12_zero = { 96, { 0,0,0,0,0,0,0,0,0,0,0,0,0,0,0,0,0,0,0,0,0,0,0,0,0,0,0,0,0,0,0,0,0,0,0,0,0,0,0,0,0,0,0,0,0,0,0,0,0,0,0,0,0,0,0,0,0,0,0,0,0,0,0,0,0,0,0,0,0,0,0,0,0,0,0,0,0,0,0,0,0,0,0,0,0,0,0,0,0,0,0,0,0,0,0,0 } };
const TfLiteAffineQuantization quant12 = { (TfLiteFloatArray*)&quant12_scale, (TfLiteIntArray*)&quant12_zero, 0 };
const ALIGN(16) int8_t tensor_data13[96*1*1*16] = { 
  /* [0][0][][] */ -30,85,-31,73,4,28,16,-29,25,22,-42,106,8,-127,56,-96, 
  /* [1][0][][] */ 21,40,-18,-31,31,-24,127,-120,-1,74,-15,-29,-5,-53,31,8, 
  /* [2][0][][] */ -127,36,-24,0,1,11,53,102,-22,75,87,-4,-52,36,41,-46, 
  /* [3][0][][] */ -73,77,57,43,-67,59,42,127,22,80,-98,18,44,-56,-73,-36, 
  /* [4][0][][] */ -4,6,28,64,-30,62,6,59,0,-31,-2,-5,30,-4,-127,-11, 
  /* [5][0][][] */ 1,-44,66,-12,8,-15,-4,34,-56,105,-37,-127,-12,25,-60,-26, 
  /* [6][0][][] */ 4,5,21,-22,31,54,-65,-71,-17,-3,59,-14,127,-34,-2,-29, 
  /* [7][0][][] */ 21,25,127,-34,-42,-33,14,-17,-105,18,-78,-66,8,8,52,-19, 
  /* [8][0][][] */ 7,7,59,66,-62,66,20,42,26,-15,-4,-91,-27,-6,-127,-87, 
  /* [9][0][][] */ 32,-105,55,50,-2,-33,-10,20,127,2,71,4,-34,24,-99,-45, 
  /* [10][0][][] */ -43,-81,12,-19,-127,20,-14,49,118,121,72,-41,-52,71,102,-11, 
  /* [11][0][][] */ 20,-7,4,-127,-11,-24,-124,-114,-79,37,-13,-24,27,-5,61,-44, 
  /* [12][0][][] */ -26,18,-3,-42,-50,-32,-78,-4,-44,-61,-15,23,46,127,103,51, 
  /* [13][0][][] */ -41,-85,-68,20,-16,-49,-7,-29,42,3,-3,-19,17,13,127,35, 
  /* [14][0][][] */ -9,-43,47,38,8,39,12,111,27,45,18,-25,22,51,-67,127, 
  /* [15][0][][] */ 14,-38,-4,63,10,-8,102,1,6,-127,4,-29,12,-14,0,-29, 
  /* [16][0][][] */ 39,-79,-56,17,13,-1,32,-64,109,73,105,17,-9,90,79,127, 
  /* [17][0][][] */ -105,-61,6,97,60,35,-36,-67,127,-101,3,-6,3,38,-107,46, 
  /* [18][0][][] */ -5,11,-5,27,-72,-13,1,39,-50,-15,-9,-22,-3,-127,65,-14, 
  /* [19][0][][] */ 76,-89,75,-87,127,75,-127,81,103,-87,87,30,-32,61,30,113, 
  /* [20][0][][] */ 41,-25,63,-67,-9,3,-40,56,-12,-46,100,-8,13,20,-34,127, 
  /* [21][0][][] */ -62,-20,5,-43,20,6,-92,-55,-18,73,13,10,-127,-18,35,-3, 
  /* [22][0][][] */ 20,-30,23,-32,24,-66,8,-9,-127,28,-12,-39,-15,-11,83,-16, 
  /* [23][0][][] */ 19,5,17,-4,9,3,-12,6,-4,-2,45,-10,127,-4,5,-42, 
  /* [24][0][][] */ -12,15,-2,-62,-29,-15,54,9,-50,6,-9,-127,-7,-110,43,-2, 
  /* [25][0][][] */ -102,-23,-28,-1,65,1,-67,-127,-36,70,-37,-44,-39,-98,19,-45, 
  /* [26][0][][] */ 34,9,62,-127,123,-35,-12,5,101,-65,64,-21,3,112,-13,80, 
  /* [27][0][][] */ 92,-31,19,-26,-30,-40,4,-15,-25,18,-127,17,11,-9,0,28, 
  /* [28][0][][] */ -116,-5,-127,-89,45,-15,62,-71,-14,39,-43,28,43,-17,-37,53, 
  /* [29][0][][] */ -64,-29,-2,127,-15,15,24,-36,-17,1,-73,39,17,-71,28,-36, 
  /* [30][0][][] */ 72,6,127,-7,30,35,-38,57,-38,-54,59,-48,-22,28,-85,44, 
  /* [31][0][][] */ 10,-87,-2,-54,-5,-56,20,-47,-8,47,117,24,-15,91,73,127, 
  /* [32][0][][] */ 4,83,-27,48,-127,44,-71,-40,-56,-31,-6,60,4,65,28,54, 
  /* [33][0][][] */ 35,-18,25,127,24,-16,6,-40,-98,61,60,-15,19,-6,21,104, 
  /* [34][0][][] */ 29,1,19,-3,70,-33,-127,-20,-33,97,-45,9,-16,20,-4,16, 
  /* [35][0][][] */ 87,28,-7,8,14,-127,-23,-21,-36,-8,-107,-8,87,26,-23,15, 
  /* [36][0][][] */ 26,10,-127,7,36,17,-33,34,-28,-26,9,-13,2,10,-20,12, 
  /* [37][0][][] */ 11,18,127,0,-49,37,18,-55,-20,30,-63,17,20,-21,4,-5, 
  /* [38][0][][] */ -127,43,-3,44,32,88,28,-27,22,-14,127,-27,-19,-1,-20,-46, 
  /* [39][0][][] */ -12,-12,7,28,26,-22,-127,32,3,27,-13,-34,-1,-15,3,-2, 
  /* [40][0][][] */ 16,98,-18,127,16,51,72,23,-81,-38,-27,54,-6,65,-103,-47, 
  /* [41][0][][] */ 13,9,-44,-17,-52,-8,127,72,-49,70,-26,4,-7,47,42,-12, 
  /* [42][0][][] */ -8,-79,-34,-16,33,1,-93,52,60,-127,84,32,-27,35,-84,28, 
  /* [43][0][][] */ -80,-4,41,-53,50,33,-95,-92,-27,41,-6,-3,-127,-23,27,6, 
  /* [44][0][][] */ 0,9,-21,-14,-11,-15,-9,-57,127,-12,28,38,15,75,5,55, 
  /* [45][0][][] */ -56,-80,17,-108,25,-9,-24,67,21,-70,-13,-20,53,119,-37,127, 
  /* [46][0][][] */ -44,12,-24,98,-83,-21,9,-61,-127,48,-41,-15,-9,37,-3,-42, 
  /* [47][0][][] */ -19,-20,-91,127,13,50,-11,-34,15,59,57,53,-32,-14,28,-30, 
  /* [48][0][][] */ -5,10,29,-127,22,-23,-7,-13,-42,19,31,-8,-15,63,103,33, 
  /* [49][0][][] */ -26,30,42,127,-25,41,-76,-19,26,-40,-89,-35,-20,-44,-77,-107, 
  /* [50][0][][] */ 2,56,35,-94,63,13,-17,56,127,-3,-25,17,8,-15,12,-20, 
  /* [51][0][][] */ 1,-30,26,-10,53,-13,-59,-127,13,-71,-12,-4,-15,-16,-17,0, 
  /* [52][0][][] */ 33,26,2,34,26,-12,-62,94,-72,127,-52,-32,62,89,1,-41, 
  /* [53][0][][] */ 10,116,23,-87,-25,5,34,-6,-60,-38,-60,67,24,-127,-108,-7, 
  /* [54][0][][] */ -6,7,12,29,45,-23,8,-37,-1,31,-12,-23,-3,127,-39,-9, 
  /* [55][0][][] */ -109,127,80,-15,40,-20,-22,-12,-52,24,97,-18,-19,-39,122,-18, 
  /* [56][0][][] */ 67,-5,31,-127,93,8,-13,21,63,-45,54,120,-13,9,92,60, 
  /* [57][0][][] */ -38,-3,18,92,-12,38,29,127,8,1,17,-18,20,69,6,43, 
  /* [58][0][][] */ 16,124,-7,-127,1,37,-13,14,99,-12,5,75,-4,-85,43,67, 
  /* [59][0][][] */ 48,66,38,-118,-76,-19,37,-16,-8,11,15,-96,-30,-127,-107,5, 
  /* [60][0][][] */ 56,-13,122,-41,-31,127,27,-30,2,42,-51,-7,31,19,33,-2, 
  /* [61][0][][] */ -36,15,-60,-57,-45,19,127,97,-31,54,-16,15,19,61,28,-21, 
  /* [62][0][][] */ -16,-12,-4,-10,-61,33,-55,-1,-35,-29,-4,-46,19,-127,78,-14, 
  /* [63][0][][] */ -4,-49,-22,-104,50,1,-119,-127,-92,108,-20,31,83,19,49,-26, 
  /* [64][0][][] */ -35,-16,62,54,107,7,-51,-127,48,-103,11,-34,5,-21,-1,10, 
  /* [65][0][][] */ -127,22,33,-68,31,72,40,-58,-79,29,49,-11,8,7,-24,-18, 
  /* [66][0][][] */ 43,-12,62,-5,-47,-1,-44,27,-36,-16,70,-85,-7,30,-127,-3, 
  /* [67][0][][] */ 36,-30,-27,70,59,-31,-65,-107,35,-127,-70,-27,-77,13,-73,25, 
  /* [68][0][][] */ 12,-11,-73,44,-64,-75,2,-60,-34,-15,57,-72,-37,64,127,-10, 
  /* [69][0][][] */ -15,29,-53,64,2,-117,32,77,26,19,42,-17,127,26,-27,-2, 
  /* [70][0][][] */ 17,14,-36,-51,-50,3,127,97,-32,46,-16,5,6,36,26,-14, 
  /* [71][0][][] */ 4,-18,-36,-47,25,7,2,53,-33,-46,-22,6,22,-127,83,17, 
  /* [72][0][][] */ 53,29,-8,52,43,-37,-43,-127,31,66,-54,26,34,69,51,34, 
  /* [73][0][][] */ -60,-127,-26,-64,-84,-16,46,-21,-22,22,-37,-26,33,-52,83,3, 
  /* [74][0][][] */ -29,47,66,93,-1,-4,-127,98,12,-33,-48,-40,-9,4,-19,3, 
  /* [75][0][][] */ -62,15,-34,11,-22,63,63,111,2,49,-16,-22,-127,63,30,36, 
  /* [76][0][][] */ 36,-49,-43,-29,67,-101,-126,-127,-15,-8,-8,-33,62,-25,55,-23, 
  /* [77][0][][] */ -33,3,-38,-30,-45,-13,-23,-35,127,11,-60,16,-13,34,30,-76, 
  /* [78][0][][] */ -100,-127,-5,73,76,64,-18,31,-11,-62,-99,69,40,-17,92,37, 
  /* [79][0][][] */ 9,-24,27,-70,127,-18,33,8,71,14,11,55,-12,-42,35,-33, 
  /* [80][0][][] */ -8,-23,65,-89,-29,-33,11,22,-66,-33,-17,-46,13,127,-46,23, 
  /* [81][0][][] */ 5,-33,62,43,16,81,-56,-59,21,-42,-8,-80,-14,28,-127,32, 
  /* [82][0][][] */ -122,-45,7,-125,-27,-24,-19,-37,-34,-52,-62,-113,-32,-127,-117,55, 
  /* [83][0][][] */ 2,14,-8,-91,-38,10,6,55,-67,5,13,-105,11,-127,-9,42, 
  /* [84][0][][] */ 127,14,6,39,-84,-9,-75,9,-19,-41,115,0,-95,15,115,-91, 
  /* [85][0][][] */ -7,-27,13,-34,47,-11,-47,120,-86,-119,-73,-37,-21,73,91,-127, 
  /* [86][0][][] */ 23,-5,5,14,-40,52,-31,29,-62,-32,25,-27,-21,-127,-16,14, 
  /* [87][0][][] */ 127,-46,15,4,-42,-39,9,4,-19,17,-126,13,40,-20,-13,35, 
  /* [88][0][][] */ 63,54,-27,-14,-10,-31,-25,-20,77,39,18,28,-42,-46,127,-112, 
  /* [89][0][][] */ 47,44,-76,-16,-36,-28,20,-66,41,40,17,-45,-38,-1,-17,-127, 
  /* [90][0][][] */ -23,-16,12,-59,-77,17,127,-35,93,-77,7,-79,60,-30,-44,15, 
  /* [91][0][][] */ -2,-9,-26,-88,-38,-1,23,-40,-39,11,57,37,-1,-19,40,127, 
  /* [92][0][][] */ 26,16,19,7,48,-22,-85,-127,59,-54,5,-38,-48,-7,6,-33, 
  /* [93][0][][] */ 83,11,30,-127,-51,-12,-32,44,44,-87,75,-33,-50,122,-38,18, 
  /* [94][0][][] */ -111,57,-92,13,66,-127,-13,21,-19,-63,83,-41,11,-17,-31,3, 
  /* [95][0][][] */ -21,56,15,-127,4,-12,-48,-16,18,-46,-55,-60,15,18,-57,12, 
};
const TfArray<4, int> tensor_dimension13 = { 4, { 96,1,1,16 } };
const TfArray<96, float> quant13_scale = { 96, { 0.00074727908940985799, 0.00070950284134596586, 0.00039845443097874522, 0.00025115173775702715, 0.00057653518160805106, 0.00082822935655713081, 0.0012423903681337833, 0.00092632719315588474, 0.00022580043878406286, 0.0010560445953160524, 0.0005719158798456192, 0.00056398106971755624, 0.00047438623732887208, 0.00060700281755998731, 0.0002396671479800716, 0.0012636742321774364, 0.0005408139550127089, 0.00059348519425839186, 0.00055131735280156136, 0.00049394892994314432, 0.0010541427182033658, 0.0015911705559119582, 0.00060021068202331662, 0.0015828181058168411, 0.0021941107697784901, 0.00079422560520470142, 0.00042761149234138429, 0.0007240784470923245, 0.00075161672430112958, 0.00027572095859795809, 0.00019839929882436991, 0.00038812257116660476, 0.00074407987995073199, 0.0010180793469771743, 0.00062052259454503655, 0.00060714647406712174, 0.0011973861837759614, 0.0013219767715781927, 0.00043450886732898653, 0.0022738613188266754, 0.00037985670496709645, 0.00056064478121697903, 0.0001954734034370631, 0.00084723916370421648, 0.00032603603904135525, 0.0005080985720269382, 0.00074296450475230813, 0.00060302368365228176, 0.00020855465845670551, 0.00064865697640925646, 0.00068196654319763184, 0.00057351891882717609, 0.00089804572053253651, 0.00071615271735936403, 0.00147127581294626, 0.00052763172425329685, 0.00048862234689295292, 0.00031476537697017193, 0.00091169506777077913, 0.00055632594740018249, 0.00077614735346287489, 0.0002919328399002552, 0.00076908728806301951, 0.00043609685963019729, 0.00063429039437323809, 0.00073354772757738829, 0.00091304176021367311, 0.00071511947317048907, 0.00066316156880930066, 0.00089131039567291737, 0.00067901139846071601, 0.00051874213386327028, 0.00037842817255295813, 0.00062634045025333762, 0.0012207000982016325, 0.00075974897481501102, 0.00056306004989892244, 0.0011427684221416712, 0.0010797090362757444, 0.0010359617881476879, 0.00046336141531355679, 0.0003473885590210557, 0.00051010999595746398, 0.00051745591918006539, 0.00099237170070409775, 0.00078204239252954721, 0.00091135717229917645, 0.00016106780094560236, 0.0004992632893845439, 0.0007947272970341146, 0.00070458051050081849, 0.00115710508543998, 0.00064437295077368617, 0.00052355026127770543, 0.00064674299210309982, 0.00036827093572355807, } };
const TfArray<96, int> quant13_zero = { 96, { 0,0,0,0,0,0,0,0,0,0,0,0,0,0,0,0,0,0,0,0,0,0,0,0,0,0,0,0,0,0,0,0,0,0,0,0,0,0,0,0,0,0,0,0,0,0,0,0,0,0,0,0,0,0,0,0,0,0,0,0,0,0,0,0,0,0,0,0,0,0,0,0,0,0,0,0,0,0,0,0,0,0,0,0,0,0,0,0,0,0,0,0,0,0,0,0 } };
const TfLiteAffineQuantization quant13 = { (TfLiteFloatArray*)&quant13_scale, (TfLiteIntArray*)&quant13_zero, 0 };
const ALIGN(16) int32_t tensor_data14[16] = { -2352, -3511, -8453, 30190, 28552, 5514, -6169, -2756, 18321, 758, 27230, 23568, -9891, 11054, 33437, -24248, };
const TfArray<1, int> tensor_dimension14 = { 1, { 16 } };
const TfArray<16, float> quant14_scale = { 16, { 0.00043614345486275852, 0.00024757845676504076, 0.00024623097851872444, 0.00022163924586493522, 0.00030893631628714502, 0.00031980176572687924, 0.00032005147659219801, 0.00036435367655940354, 0.00020394590683281422, 0.00026723774499259889, 0.00033621964394114912, 0.00063435389893129468, 0.0004235403030179441, 0.0004423797654453665, 0.00043373327935114503, 0.00032178216497413814, } };
const TfArray<16, int> quant14_zero = { 16, { 0,0,0,0,0,0,0,0,0,0,0,0,0,0,0,0 } };
const TfLiteAffineQuantization quant14 = { (TfLiteFloatArray*)&quant14_scale, (TfLiteIntArray*)&quant14_zero, 0 };
const ALIGN(16) int8_t tensor_data15[16*1*1*96] = { 
  /* [0][0][][] */ -2,16,-14,13,51,62,-38,-29,40,-2,11,-3,-13,16,19,77,-5,-11,-11,-8,92,-46,6,-17,-19,-31,-45,-95,0,-13,44,43,110,-1,6,0,4,-22,-13,2,-30,16,13,-28,0,-25,-15,21,-16,23,11,-11,-39,-13,5,-3,42,24,-24,-22,-58,32,-14,-15,8,7,55,3,5,10,-4,-18,-58,-9,7,-3,-8,-81,0,-17,34,-27,-61,-50,37,-12,-1,25,-6,12,12,-30,30,30,-10,127, 
  /* [1][0][][] */ 79,-105,55,72,-1,-81,-25,-53,-23,-83,-1,25,1,-64,-42,-69,-96,5,22,31,-29,-111,-48,39,127,-67,-84,12,-30,108,-18,39,2,22,-53,11,-30,-19,64,-35,-2,-71,69,-25,-68,11,51,9,45,18,8,-63,62,-74,43,-28,26,9,-25,-105,39,-57,24,-59,-5,-100,39,54,24,59,-36,-14,-101,51,-19,58,37,105,32,-13,35,-1,-80,49,-81,66,-8,67,-51,10,10,10,10,-40,44,5, 
  /* [2][0][][] */ 25,23,7,-26,6,1,-3,44,56,-13,7,82,2,6,56,5,-7,-24,8,-5,-23,-64,11,-45,3,-19,-24,31,5,16,127,-56,20,-78,-19,59,20,124,-47,-25,10,-8,-4,41,-46,-56,-58,24,22,34,-33,-31,31,-4,-5,-30,-19,-7,2,29,10,-1,81,104,-2,-80,7,-78,-7,-10,-18,16,-32,6,-29,19,24,59,5,12,16,86,25,-24,-12,2,18,14,27,11,-1,-60,-34,-3,-7,61, 
  /* [3][0][][] */ -10,-14,-40,42,35,-15,4,-24,-9,15,-2,18,9,-14,48,6,46,-48,13,4,-16,-11,-6,12,-17,13,11,-3,28,-52,60,-14,16,-13,-10,52,-8,-2,-13,7,19,-71,25,-28,-6,1,10,1,-127,41,-14,31,-117,-48,-30,-38,30,12,-10,54,-3,12,13,16,-16,-83,-41,18,59,12,-7,29,-47,7,-10,-48,-43,-56,32,-43,16,-27,22,63,42,59,39,21,36,-4,3,7,-25,3,-15,-28, 
  /* [4][0][][] */ -4,-40,14,-74,15,-8,-41,9,-30,-44,-32,0,10,83,19,9,65,-14,6,9,2,42,55,12,-3,8,24,11,3,-4,-18,-11,-43,17,2,13,32,-33,10,-15,24,18,-102,-29,32,-16,-7,-11,-1,86,-23,-10,-26,-7,12,-21,-1,-35,23,38,10,8,15,2,36,-123,9,-23,-49,21,-21,2,-26,18,-9,39,-23,67,65,7,5,0,127,-54,51,-9,1,4,75,8,5,32,-23,40,-7,-46, 
  /* [5][0][][] */ -17,8,-10,-7,-5,-16,3,123,52,-19,-21,-15,-16,33,44,33,-20,-17,-7,-37,-53,-1,2,-44,12,5,21,80,88,3,58,52,-60,27,7,-3,-62,-65,-34,-27,-32,-5,-18,-2,62,17,11,28,6,12,-14,10,-34,-18,4,-13,-19,-30,-11,43,-55,15,-25,-46,3,18,-23,11,-9,21,-2,1,24,1,7,2,-2,21,10,127,-13,-51,16,24,3,-6,32,-28,5,-23,29,-127,-24,-18,-10,-117, 
  /* [6][0][][] */ -17,7,-17,-69,-2,-31,-25,10,-7,21,-26,-1,33,-54,3,-16,-8,-77,26,11,0,14,-23,33,78,-18,-9,2,27,-12,10,-15,-35,7,-36,7,13,5,37,27,-9,-23,-65,-12,-10,-21,33,-127,17,40,28,7,5,3,-8,-43,46,-23,-11,9,26,32,4,4,28,68,36,-20,-36,-18,15,-33,17,5,53,-14,-25,44,8,11,-31,-1,52,-22,-3,54,23,-28,24,10,-40,-3,-19,19,-7,22, 
  /* [7][0][][] */ 9,14,38,-18,-17,9,-1,-23,0,-11,-13,-18,-3,-92,27,16,-1,-32,-14,-14,6,-19,-32,-6,-24,-6,5,-15,14,2,3,9,-11,3,-2,-18,6,-5,-37,31,10,-19,-16,24,-3,12,-13,73,-5,22,-16,-23,-23,6,-11,-48,36,11,3,-1,-6,-8,-12,-16,-16,45,9,-34,-1,-4,3,43,-9,-20,-13,15,46,-11,-7,-31,11,-32,39,-8,-36,127,-9,-9,-31,-15,-3,25,-27,-4,-6,2, 
  /* [8][0][][] */ -61,34,-53,12,52,-10,1,15,15,55,-41,18,8,45,69,-11,-7,31,-70,34,27,42,-30,5,-34,-12,10,21,70,-83,-12,-6,27,1,20,-3,-24,35,-31,29,8,28,16,-127,-31,-9,41,-21,-41,21,-14,61,-107,77,19,-12,13,-14,-29,-7,6,-34,5,28,-24,39,9,-35,-8,3,32,78,-28,23,50,39,-9,-89,-6,-37,-14,-18,20,-10,-38,15,32,-32,-1,44,-21,19,39,-1,-15,-7, 
  /* [9][0][][] */ 15,-54,-29,-31,8,33,-7,23,33,-21,-5,11,-31,-22,0,32,0,15,32,-22,-26,17,-14,-41,31,23,31,-5,-20,-43,-35,4,-15,18,16,36,15,50,-40,19,12,4,-15,-97,21,-11,45,-126,-41,-9,3,28,-14,22,-22,2,-53,42,-1,27,6,2,11,25,32,127,27,31,22,-8,8,-8,-14,-9,-25,13,64,-11,8,8,-1,6,17,-52,13,21,2,-6,-48,40,-34,21,19,18,5,-12, 
  /* [10][0][][] */ 28,55,-22,31,78,-127,-14,-33,-4,52,33,2,-17,21,17,-81,12,39,-32,53,-80,0,-13,-21,-76,-23,-64,55,12,12,-8,40,-13,-7,40,-13,76,-33,-7,-19,-5,71,44,-17,-61,-12,-34,20,-22,-21,-46,6,-21,-4,1,-25,12,21,-32,-4,9,4,-18,18,16,50,52,28,27,6,35,57,-53,-37,-49,-14,-1,28,-12,5,23,-11,-77,-42,70,-46,102,-8,-24,9,23,5,102,54,-13,-127, 
  /* [11][0][][] */ 41,37,-32,25,-4,23,59,5,2,-19,-28,-9,4,1,30,16,0,-12,-99,-9,-1,20,10,-10,-42,-16,-9,5,3,14,-9,-1,-10,4,6,28,12,14,-11,20,8,31,62,-106,34,-40,7,-6,-127,9,6,-43,25,27,-16,7,-20,-6,11,1,15,-27,-11,6,-47,60,-27,1,20,-7,22,14,-57,-34,14,35,-8,-38,-53,-1,16,2,91,37,10,-9,-4,-15,-2,20,-15,3,5,8,-23,14, 
  /* [12][0][][] */ -31,-3,5,-7,-22,39,16,5,127,-1,-4,-3,0,12,-35,-43,33,24,4,80,52,38,-14,-21,3,17,18,-31,-112,-1,25,-30,0,1,-2,-20,17,6,31,-7,-53,-15,-6,15,4,31,1,-10,18,9,-47,14,5,-5,16,-4,79,-19,14,13,18,-23,10,-7,-7,28,-52,-5,2,9,-19,-23,24,11,-68,11,30,-2,4,-69,-13,3,32,27,-12,-17,-25,-33,4,22,2,55,-6,-28,15,13, 
  /* [13][0][][] */ 28,-9,-27,33,29,1,7,1,-3,5,9,1,11,-10,15,-13,19,-76,-38,12,-5,-22,9,6,8,8,0,-1,-10,-34,-3,16,-5,8,14,41,15,3,10,15,-6,6,23,41,19,16,-11,-127,19,-5,9,6,-18,0,27,4,-12,19,17,14,7,21,-4,2,-7,-19,-18,-55,10,17,-5,-39,-17,41,-7,23,-22,0,18,4,29,-9,-12,24,13,28,12,17,0,4,21,2,8,18,-9,-1, 
  /* [14][0][][] */ -126,-53,34,55,35,-29,-39,11,-10,16,-16,15,68,7,-127,-7,84,-19,-12,23,-11,-14,31,12,-102,13,41,-9,-40,-72,-34,-6,-7,0,20,-63,30,38,3,28,18,27,-4,-36,22,122,69,62,-108,50,23,29,-47,3,35,4,4,13,67,53,35,55,15,56,10,-8,-37,40,14,72,-48,-91,-78,-4,-8,50,-13,41,91,3,61,24,42,35,32,12,53,31,22,38,69,-5,-6,18,21,-30, 
  /* [15][0][][] */ 86,-19,39,-2,-7,82,34,-11,-8,58,12,9,-80,-13,-15,27,21,51,48,-27,1,13,-83,59,19,4,53,-10,18,48,-51,-82,8,-46,53,-6,47,-35,-56,-95,-6,24,2,38,-7,49,-24,-46,99,-43,-54,23,50,-125,63,-112,-3,-55,25,13,-127,2,22,25,75,-15,-52,45,-30,73,-27,12,45,32,12,9,20,-59,66,-5,-10,5,34,85,-25,1,-1,-63,15,-2,63,-3,-59,50,22,-18, 
};
const TfArray<4, int> tensor_dimension15 = { 4, { 16,1,1,96 } };
const TfArray<16, float> quant15_scale = { 16, { 0.018536096438765526, 0.010522084310650826, 0.010464816354215145, 0.0094196675345301628, 0.013129793107509613, 0.013591574504971504, 0.013602187857031822, 0.01548503153026104, 0.0086677009239792824, 0.011357604525983334, 0.014289334416389465, 0.026960041373968124, 0.018000463023781776, 0.018801139667630196, 0.018433663994073868, 0.013675741851329803, } };
const TfArray<16, int> quant15_zero = { 16, { 0,0,0,0,0,0,0,0,0,0,0,0,0,0,0,0 } };
const TfLiteAffineQuantization quant15 = { (TfLiteFloatArray*)&quant15_scale, (TfLiteIntArray*)&quant15_zero, 0 };
const ALIGN(16) int32_t tensor_data16[96] = { 10251, -9198, 3187, 46570, -1540, -4390, -10475, 2984, -2834, 829, 2857, -1890, 1052, -4558, 7082, -5339, -854, 16966, 25805, 2524, 2481, -2352, 15, 341, 16090, -659, -713, -3830, -5547, -7278, 5748, -9355, -95, -2578, -551, 11441, 1241, -3365, 21412, 475, -252, 2115, -8948, -7701, -7065, 68620, 148, 17510, 31758, -12680, -942, 6529, 7288, -355, -6547, 2362, -9667, 1912, 2290, -6580, -2050, -963, -13443, -203, 1672, 15020, 27993, 24074, -11859, 43, -11420, -551, 48916, 11996, 704, 317, 19235, 35436, -32, -6098, -2140, -7709, 1470, -3032, 604, -349, 1275, -287, 1814, -2985, -254, -478, -86, -199, 44, 47653, };
const TfArray<1, int> tensor_dimension16 = { 1, { 96 } };
const TfArray<96, float> quant16_scale = { 96, { 0.00019605230772867799, 0.00011675919085973874, 0.00025161751545965672, 4.6249802835518494e-05, 0.00016175620839931071, 0.00016171236347872764, 0.00034649547887966037, 7.7330878411885351e-05, 0.00011944073048653081, 0.000378049211576581, 0.00016270474588964134, 0.00030779986991547048, 8.6533989815507084e-05, 0.00045055418740957975, 0.00014982072752900422, 0.00015649842680431902, 0.00011112471111118793, 0.00030451736529357731, 5.7209246733691543e-05, 0.00020930226310156286, 4.6422021114267409e-05, 0.00018434908997733146, 0.00014973759243730456, 0.00034973456058651209, 0.00022104506206233054, 0.00026112250634469092, 0.00012699766375590116, 0.00017945443687494844, 0.00011337098112562671, 0.00011789408745244145, 0.00013843893248122185, 0.00017848947027232498, 0.00013216459774412215, 9.626087557990104e-05, 0.00019633867486845702, 0.00020525905711110681, 0.00044589219032786787, 0.00013121101073920727, 6.1947459471412003e-05, 0.00014500925317406654, 0.0002087248140014708, 0.00030902744038030505, 0.00039256940362975001, 0.00015585079381708056, 0.00018196644668933004, 5.6686876632738858e-05, 0.00023864330432843417, 0.0001966303534572944, 8.2842692791018635e-05, 0.00018995099526364356, 0.0001653425715630874, 0.00019425789650995284, 0.00023792669526301324, 0.00029527352307923138, 0.00023212807718664408, 0.00045420773676596582, 0.00042357560596428812, 0.00019610353047028184, 0.00011462542170193046, 8.4468621935229748e-05, 0.00030682526994496584, 0.0001368166267639026, 0.00027170864632353187, 0.000149022918776609, 0.00022769866336602718, 0.00019621774845290929, 9.1499176051001996e-05, 7.5409698183648288e-05, 0.00040365985478274524, 0.00025035094586201012, 0.00017661566380411386, 9.2282978584989905e-05, 0.00011765694944187999, 0.000181832947419025, 0.00016003529890440404, 0.00028200354427099228, 0.00052837328985333443, 5.3608589951181784e-05, 0.00027081274311058223, 0.00030537851853296161, 0.00016605071141384542, 0.00027080514701083302, 9.9604141723830253e-05, 0.00016121831140480936, 0.00012466771295294166, 9.6004710940178484e-05, 0.00014192466915119439, 0.00017500051762908697, 0.00021394816576503217, 0.00012020549911540002, 0.00020304515783209354, 0.00011058669042540714, 0.00015471711230929941, 0.000462041498394683, 0.027967102825641632, 8.2345446571707726e-05, } };
const TfArray<96, int> quant16_zero = { 96, { 0,0,0,0,0,0,0,0,0,0,0,0,0,0,0,0,0,0,0,0,0,0,0,0,0,0,0,0,0,0,0,0,0,0,0,0,0,0,0,0,0,0,0,0,0,0,0,0,0,0,0,0,0,0,0,0,0,0,0,0,0,0,0,0,0,0,0,0,0,0,0,0,0,0,0,0,0,0,0,0,0,0,0,0,0,0,0,0,0,0,0,0,0,0,0,0 } };
const TfLiteAffineQuantization quant16 = { (TfLiteFloatArray*)&quant16_scale, (TfLiteIntArray*)&quant16_zero, 0 };
const ALIGN(16) int8_t tensor_data17[1*3*3*96] = { 
  /* [0][0][][] */ -18,5,-20,104,-17,25,-61,-53,18,-5,99,-9,4,-8,-4,52,5,17,-33,4,74,3,31,-35,2,17,41,48,21,12,23,48,-7,28,11,-15,4,49,-62,-26,19,8,27,17,-85,-57,25,-6,-11,-19,-6,-6,49,6,-8,1,-3,-35,27,-31,27,-2,127,27,-13,-11,12,-54,65,35,3,-4,78,-31,67,4,17,-127,29,66,1,13,127,-14,38,29,-28,-19,35,-6,-13,80,-1,19,-2,14, -49,12,-8,10,52,-7,-10,-127,38,13,-127,-5,-17,-13,5,91,17,-31,-19,-15,77,-97,127,25,-61,-31,-103,-16,27,37,-49,18,119,12,-12,-1,-24,127,-66,-127,8,-20,-30,15,46,-127,127,-45,-76,50,51,7,39,-63,32,56,36,42,-98,85,127,34,3,-20,43,-38,-93,-2,37,-31,-18,46,-48,-47,104,-2,-30,-61,-33,64,-64,62,-16,10,-11,48,55,-41,-28,53,-12,72,-127,-31,23,-127, 0,-5,-23,-73,10,17,37,23,-3,-2,3,63,0,-12,-11,2,-12,18,-18,17,5,25,24,-33,1,-32,6,11,-7,3,46,-79,45,18,10,-23,11,3,-36,-21,8,2,-16,9,22,-33,20,0,7,-7,6,-5,5,6,-5,8,-7,44,8,-2,11,-17,3,-17,-26,-17,33,-51,-104,-7,41,-14,-127,-23,-13,17,10,-12,5,12,-13,21,-37,-2,-41,21,28,37,-25,-17,26,-12,18,7,-2,-44, 
  /* [0][1][][] */ -41,58,-17,37,-85,-15,-10,-44,26,96,-45,-22,-30,-25,-7,63,127,-25,-90,-13,60,-127,-29,15,-34,-46,-127,-5,38,36,-50,28,-127,-74,-57,3,66,-4,-52,47,-20,86,1,-4,36,-51,-12,-33,127,42,-3,20,44,10,-36,-17,31,9,-123,127,-36,-88,20,127,-59,-36,-85,126,-37,127,-18,51,-34,-54,36,8,-35,-71,127,48,127,35,5,-1,127,29,-95,47,-38,-35,-101,39,95,102,29,-59, 127,127,127,127,-45,-127,127,24,127,-127,17,-127,-108,127,127,127,-16,-127,-61,-127,127,22,-66,127,127,127,-53,-127,127,127,-127,127,-9,-127,-124,127,-127,-46,96,109,-127,-127,127,127,127,-118,-108,127,-14,127,-127,-127,-127,127,127,-127,127,-127,-41,41,-105,-28,-71,-68,127,127,-69,127,127,-107,-127,127,-40,127,-127,-127,-127,123,-76,127,-42,127,77,127,-38,-127,-24,-107,-127,-127,-22,-127,-22,-127,-127,117, -24,66,-37,2,127,72,-20,49,5,24,-12,-5,-27,-30,-13,-5,-104,-22,-127,39,32,76,-12,-117,-34,-41,121,72,9,38,72,8,122,-47,127,-4,55,5,-101,14,36,23,-23,1,-24,-55,-13,-43,82,14,-10,39,-6,-4,-74,-14,24,20,127,-90,3,127,1,-36,-111,-29,-75,100,16,-17,114,23,-18,-57,11,48,-29,-8,-44,-3,-45,8,47,24,-91,36,127,-46,32,-23,127,-9,-111,34,34,18, 
  /* [0][2][][] */ -4,-37,-21,-60,-5,15,41,32,-2,10,-20,51,24,-34,-8,10,41,4,9,22,-10,30,-16,-26,1,-23,11,3,-8,-6,48,-73,-38,68,-28,-25,32,-35,-67,16,8,9,-36,18,13,-79,-11,-1,-10,6,17,-8,7,1,-21,7,-1,44,-51,33,-5,-11,5,17,-6,-9,21,-55,-56,11,-21,-12,-115,-31,0,18,14,-13,56,18,23,22,-41,15,11,25,-21,8,5,26,22,-5,21,39,-7,-30, -28,-8,-26,24,-45,76,-25,66,6,-6,56,-12,127,-6,-18,-14,-2,-40,-60,23,-23,78,-44,-112,-47,-46,102,69,15,45,53,-2,-121,64,-15,-23,-28,-27,-127,-5,44,-14,-16,36,-28,-46,-18,-47,-60,28,70,24,-12,-81,30,53,18,25,72,-56,20,-56,-9,0,19,-25,-127,-56,-10,-27,-63,23,38,-46,-29,-7,-45,22,-57,1,50,34,15,11,4,62,-93,127,14,125,-31,-18,115,-21,46,83, -9,-32,-25,28,12,67,-42,13,3,-6,0,14,11,-49,-10,-10,-44,-5,13,20,-24,5,-20,3,-3,19,0,51,-3,-4,33,28,18,43,19,-23,-6,-26,-35,9,10,-12,20,7,-75,-33,-13,5,-2,-15,0,-4,-9,9,-16,-5,-2,-50,12,-28,-21,50,9,-28,-11,-3,36,-55,45,7,54,-22,30,-54,-19,23,10,10,-5,22,-29,33,89,-14,-18,54,39,-8,108,11,2,-18,11,-22,-6,-50, 
};
const TfArray<4, int> tensor_dimension17 = { 4, { 1,3,3,96 } };
const TfArray<96, float> quant17_scale = { 96, { 0.0083322227001190186, 0.0049622654914855957, 0.010693744756281376, 0.0019656165968626738, 0.0068746386095881462, 0.0068727750331163406, 0.014726057648658752, 0.0032865621615201235, 0.0050762309692800045, 0.016067091375589371, 0.0069149518385529518, 0.01308149378746748, 0.0036776943597942591, 0.019148552790284157, 0.0063673807308077812, 0.0066511831246316433, 0.0047228001058101654, 0.012941987253725529, 0.002431392902508378, 0.008895345963537693, 0.0019729358609765768, 0.007834835909307003, 0.0063638472929596901, 0.014863718301057816, 0.0093944147229194641, 0.01109770592302084, 0.0053974008187651634, 0.0076268133707344532, 0.004818266723304987, 0.0050104986876249313, 0.0058836545795202255, 0.0075858021154999733, 0.0056169950403273106, 0.0040910872630774975, 0.0083443932235240936, 0.0087235094979405403, 0.018950417637825012, 0.0055764676071703434, 0.0026327669620513916, 0.0061628930270671844, 0.0088708046823740005, 0.013133666478097439, 0.016684198752045631, 0.0066236583516001701, 0.0077335736714303493, 0.0024091922678053379, 0.010142340324819088, 0.0083567900583148003, 0.0035208144690841436, 0.0080729173496365547, 0.0070270588621497154, 0.0082559604197740555, 0.010111884213984013, 0.012549124658107758, 0.0098654432222247124, 0.019303828477859497, 0.018001962453126907, 0.0083344001322984695, 0.00487158028408885, 0.0035899165086448193, 0.013040073215961456, 0.0058147064410150051, 0.011547616682946682, 0.0063334740698337555, 0.0096771931275725365, 0.0083392541855573654, 0.0038887150585651398, 0.0032049121800810099, 0.017155542969703674, 0.010639915242791176, 0.0075061656534671783, 0.0039220266044139862, 0.0050004203803837299, 0.0077279000543057919, 0.0068014999851584435, 0.011985150165855885, 0.022455865517258644, 0.0022783649619668722, 0.011509541422128677, 0.012978586368262768, 0.0070571550168097019, 0.011509218253195286, 0.0042331758886575699, 0.0068517779000103474, 0.0052983774803578854, 0.0040802001021802425, 0.0060317981988191605, 0.0074375215917825699, 0.0090927965939044952, 0.0051087336614727974, 0.0086294189095497131, 0.0046999342739582062, 0.0065754768438637257, 0.019636763259768486, 1.1886018514633179, 0.0034996813628822565, } };
const TfArray<96, int> quant17_zero = { 96, { 0,0,0,0,0,0,0,0,0,0,0,0,0,0,0,0,0,0,0,0,0,0,0,0,0,0,0,0,0,0,0,0,0,0,0,0,0,0,0,0,0,0,0,0,0,0,0,0,0,0,0,0,0,0,0,0,0,0,0,0,0,0,0,0,0,0,0,0,0,0,0,0,0,0,0,0,0,0,0,0,0,0,0,0,0,0,0,0,0,0,0,0,0,0,0,0 } };
const TfLiteAffineQuantization quant17 = { (TfLiteFloatArray*)&quant17_scale, (TfLiteIntArray*)&quant17_zero, 3 };
const ALIGN(16) int32_t tensor_data18[96] = { 13266, 1007, 5955, -572, 4105, 4282, 13073, 5280, -959, 13074, 6735, 1277, 6306, 39109, -298, -1769, 8030, 10713, 1729, -130, -529, 14218, 4422, 3402, 8386, 4694, 3667, 3560, 40, -16, 6116, 8022, 12593, 1495, 6062, -648, 17261, 6034, 878, 3602, 713, 11257, 11102, 4178, 2856, 9911, 14058, 3918, 4846, 2701, 232, -568, 14528, 5464, 7176, 14896, -292, 7565, 2742, 3383, 11469, 6230, 2481, 5484, 5469, 4415, 5670, -632, 23339, 6347, 11399, -1042, -1313, 2482, 1387, 3357, 23164, 11983, 13377, -2326, 5925, -5384, -1600, 556, 6655, 4609, 5808, 4669, 9892, 4652, 6126, 3527, 13840, 16725, -8724, 12832, };
const TfArray<1, int> tensor_dimension18 = { 1, { 96 } };
const TfArray<96, float> quant18_scale = { 96, { 0.00019468057143967599, 0.00033428380265831947, 0.0002247131778858602, 0.00097332056611776352, 0.0003827266045846045, 0.00020989991025999188, 0.0002374789328314364, 0.0006617769249714911, 0.00046336132800206542, 0.00013797348947264254, 0.00021193786233197898, 0.00063992501236498356, 0.00044036973849870265, 0.00012265468831174076, 0.00030627381056547165, 0.00040529909892939031, 0.00027669055270962417, 0.00021687377011403441, 0.00026020727818831801, 0.00076739431824535131, 0.00049671967281028628, 0.00017482136900071055, 0.00033606099896132946, 0.00023792283900547773, 0.00021489952632691711, 0.00043934400309808552, 0.00038262779708020389, 0.00025318303960375488, 0.00058239256031811237, 0.00040555369923822582, 0.00023587432224303484, 0.00023629538191016763, 0.00015743050607852638, 0.00071712146745994687, 0.00027574467821978033, 0.00045151531230658293, 0.00013117461639922112, 0.00043479964369907975, 0.00054402573732659221, 0.00026198121486231685, 0.00071872462285682559, 0.00016784897889010608, 0.00019392257672734559, 0.00017353716248180717, 0.00039412311161868274, 0.00033070202334783971, 0.00020261823374312371, 0.0003711258468683809, 0.00032819481566548347, 0.00032635021489113569, 0.00045123926247470081, 0.0011743202339857817, 0.00018385534349363297, 0.00029092884506098926, 0.00032215958344750106, 0.00012485857587307692, 0.00046210514847189188, 0.00023114153009373695, 0.00029294283012859523, 0.00048246560618281364, 0.00014738450408913195, 0.00022462081687990576, 0.000415127316955477, 0.00050153321353718638, 0.00019062279898207635, 0.0002594806719571352, 0.00034122166107408702, 0.00053171982290223241, 0.00011564478336367756, 0.00018190442642662674, 0.00017384706006851047, 0.00046278687659651041, 0.00031127803958952427, 0.00053960969671607018, 0.00032428000122308731, 0.0003830356290563941, 0.00010329711949452758, 0.0003742660628631711, 0.00012561942276079208, 0.00052263552788645029, 0.00017906236462295055, 0.0003872090601362288, 0.00023364181106444448, 0.00050192297203466296, 0.00023861022782512009, 0.00033604490454308689, 0.00028162647504359484, 0.00029819767223671079, 0.00017127544560935348, 0.00034788696211762726, 0.00022783460735809058, 0.0004851455450989306, 0.00015404877194669098, 0.00016518605116289109, 0.00033596323919482529, 0.00025475688744336367, } };
const TfArray<96, int> quant18_zero = { 96, { 0,0,0,0,0,0,0,0,0,0,0,0,0,0,0,0,0,0,0,0,0,0,0,0,0,0,0,0,0,0,0,0,0,0,0,0,0,0,0,0,0,0,0,0,0,0,0,0,0,0,0,0,0,0,0,0,0,0,0,0,0,0,0,0,0,0,0,0,0,0,0,0,0,0,0,0,0,0,0,0,0,0,0,0,0,0,0,0,0,0,0,0,0,0,0,0 } };
const TfLiteAffineQuantization quant18 = { (TfLiteFloatArray*)&quant18_scale, (TfLiteIntArray*)&quant18_zero, 0 };
const ALIGN(16) int8_t tensor_data19[96*1*1*16] = { 
  /* [0][0][][] */ 33,-6,127,111,67,-28,33,-31,106,-13,-48,-57,24,74,-40,-77, 
  /* [1][0][][] */ 45,70,-9,-2,94,-19,-9,16,39,64,-33,127,3,-37,78,-61, 
  /* [2][0][][] */ 39,-41,-2,13,-78,56,-43,119,-63,-95,1,104,-7,-127,95,-94, 
  /* [3][0][][] */ 127,125,-2,35,-122,-14,-69,-35,1,-3,110,-69,-70,109,-57,-42, 
  /* [4][0][][] */ -7,-20,17,11,-14,39,-24,37,-68,-58,-24,16,5,-127,25,19, 
  /* [5][0][][] */ 100,-37,-24,-24,-20,-127,-41,9,-8,4,-98,-26,24,-31,1,42, 
  /* [6][0][][] */ -108,-58,-19,87,-40,-2,-51,14,-127,-85,-77,-27,14,49,4,95, 
  /* [7][0][][] */ -5,21,-68,57,57,-127,-35,35,19,-34,11,-3,-9,17,-38,6, 
  /* [8][0][][] */ 36,-41,-5,-6,16,23,-57,-53,-8,18,-76,16,-127,0,-6,20, 
  /* [9][0][][] */ 16,-53,67,127,-4,27,0,-66,122,-79,6,-12,-5,54,-80,28, 
  /* [10][0][][] */ -127,-60,-23,-58,103,43,63,111,94,-62,-99,56,114,-118,-110,100, 
  /* [11][0][][] */ 42,-10,-127,10,49,18,-23,36,-13,-32,-13,-9,-6,12,-47,7, 
  /* [12][0][][] */ 96,-53,-4,8,-14,-65,-79,-44,50,-4,-127,-31,-56,-27,19,65, 
  /* [13][0][][] */ 59,-97,2,-56,91,-18,-127,-124,-2,-71,-3,23,17,-21,6,7, 
  /* [14][0][][] */ -73,31,-82,-55,88,-127,52,-53,50,48,-11,-92,28,92,-12,38, 
  /* [15][0][][] */ 28,-11,60,51,53,-54,-35,2,22,-59,-84,-9,-127,-55,-16,47, 
  /* [16][0][][] */ -127,60,-11,1,-19,74,36,57,-21,20,113,22,10,-3,12,-32, 
  /* [17][0][][] */ -5,-10,-40,-27,-26,10,41,78,-16,127,-15,12,-7,81,64,-4, 
  /* [18][0][][] */ 1,127,-55,0,10,-4,44,-78,32,120,-67,109,-2,-59,37,-95, 
  /* [19][0][][] */ -1,-20,34,18,7,47,-3,18,9,12,-41,-11,-127,-5,-8,33, 
  /* [20][0][][] */ 96,-57,-11,-79,-29,14,29,-94,-49,26,-127,-47,23,1,63,-1, 
  /* [21][0][][] */ 59,3,127,58,-28,53,19,-11,8,27,-14,-17,-23,72,10,-20, 
  /* [22][0][][] */ 33,21,27,26,-10,9,35,127,12,-6,-1,42,11,41,27,12, 
  /* [23][0][][] */ -28,27,-91,23,11,-127,20,43,4,-13,-6,-7,-70,-1,-7,36, 
  /* [24][0][][] */ 37,-57,9,-45,49,-5,-27,0,42,40,59,93,-35,83,127,44, 
  /* [25][0][][] */ -127,-106,-48,22,22,24,23,-42,-70,4,-110,20,9,55,14,47, 
  /* [26][0][][] */ 20,-31,48,7,4,1,-47,59,-74,-84,-19,3,-4,-127,54,-30, 
  /* [27][0][][] */ -86,38,-49,42,31,-15,7,30,42,-21,127,23,-22,-5,-4,-32, 
  /* [28][0][][] */ -28,-11,23,35,0,0,9,88,32,17,-28,-2,-127,-7,-8,41, 
  /* [29][0][][] */ -13,64,40,-34,33,-20,18,-24,-127,22,-32,7,3,33,-87,20, 
  /* [30][0][][] */ -12,6,-127,-37,28,-51,6,18,-25,-18,-5,-11,-37,-31,4,21, 
  /* [31][0][][] */ 127,-41,-99,14,45,5,-36,52,-12,-3,-59,-35,22,-9,-81,19, 
  /* [32][0][][] */ -127,38,29,45,19,73,1,33,27,-12,118,7,-44,17,-20,-19, 
  /* [33][0][][] */ 8,-9,127,-14,-67,31,6,-41,-1,11,-14,23,-13,18,51,14, 
  /* [34][0][][] */ -7,-32,-39,-92,20,3,-27,-12,-22,-74,-35,-127,-13,9,26,3, 
  /* [35][0][][] */ 1,-46,42,50,54,-35,10,-25,-127,36,-23,23,-21,125,-42,-37, 
  /* [36][0][][] */ -104,44,-24,6,-15,35,29,97,1,38,127,-16,-8,22,25,-31, 
  /* [37][0][][] */ -39,10,127,-30,-82,-55,27,-28,25,30,0,9,8,-55,49,21, 
  /* [38][0][][] */ 15,-7,-6,44,48,-44,-50,28,-13,4,80,3,127,27,-26,3, 
  /* [39][0][][] */ -7,-15,-12,-35,-53,-75,70,127,-43,-17,0,-62,-4,50,40,55, 
  /* [40][0][][] */ 63,-14,-24,-10,-12,63,-24,-2,14,2,18,-7,127,0,-17,-11, 
  /* [41][0][][] */ -10,-9,-43,-127,19,-6,-15,-62,-7,-42,10,-33,3,-16,-11,39, 
  /* [42][0][][] */ 59,50,15,111,-110,5,-97,-3,-102,-68,72,-78,-56,127,-52,4, 
  /* [43][0][][] */ 6,98,-37,127,15,35,61,-77,-40,70,-23,30,13,-41,49,34, 
  /* [44][0][][] */ -7,-25,-127,16,50,71,-44,45,-29,-21,33,-20,0,-21,-41,6, 
  /* [45][0][][] */ -9,14,-23,-127,-35,-13,46,-13,-19,19,-29,8,7,-99,34,-23, 
  /* [46][0][][] */ 16,25,59,-7,22,7,-58,56,24,-50,-36,16,13,127,55,-22, 
  /* [47][0][][] */ 18,-24,25,-46,-41,17,-69,54,-10,-44,16,29,-3,-127,49,12, 
  /* [48][0][][] */ 9,-21,15,-127,-1,-19,-10,0,13,-44,10,-24,2,39,2,48, 
  /* [49][0][][] */ 25,-40,-7,101,79,-4,-7,51,-61,4,26,24,-7,45,127,0, 
  /* [50][0][][] */ -18,-33,63,-22,-12,127,-53,-103,62,-63,119,26,104,-31,18,-79, 
  /* [51][0][][] */ 20,43,6,21,20,-3,-45,14,38,-2,-2,127,9,23,24,-48, 
  /* [52][0][][] */ -38,46,127,0,32,-30,15,-54,-14,16,16,24,-8,78,-102,-16, 
  /* [53][0][][] */ -10,-16,-43,-127,-53,12,14,-32,-24,26,21,-9,10,-15,47,16, 
  /* [54][0][][] */ 10,18,-31,-46,10,9,-19,8,60,-11,6,-22,-10,127,15,21, 
  /* [55][0][][] */ -19,-27,-34,-3,9,-35,-12,-127,6,-89,-20,-7,-16,-75,-49,-15, 
  /* [56][0][][] */ 39,46,23,48,3,-25,10,127,19,-33,-3,-37,82,-20,-46,44, 
  /* [57][0][][] */ 77,-19,127,-27,-81,-62,-24,-50,39,14,-110,21,74,-55,62,33, 
  /* [58][0][][] */ 109,58,2,88,-127,-36,-16,42,-20,6,66,-43,-76,-36,-12,-72, 
  /* [59][0][][] */ 121,-35,-14,1,-27,-7,-4,15,-28,29,-127,-8,17,3,-8,33, 
  /* [60][0][][] */ -127,33,-1,-5,21,10,17,27,13,13,101,14,-29,-12,10,-15, 
  /* [61][0][][] */ -79,83,23,30,42,-17,-82,-68,127,-110,91,4,48,-62,-114,-60, 
  /* [62][0][][] */ -45,-55,-127,54,56,88,20,117,36,-69,59,-29,-89,6,-103,6, 
  /* [63][0][][] */ -50,16,127,-31,-65,-48,38,-24,7,22,0,20,-5,-43,61,23, 
  /* [64][0][][] */ 22,79,-3,33,49,3,102,-112,-10,127,14,-13,-8,-105,-13,60, 
  /* [65][0][][] */ 6,30,1,-21,61,18,27,-127,-38,-65,-24,-72,-16,-53,48,24, 
  /* [66][0][][] */ -127,9,-20,21,-46,30,24,-45,-78,-30,-95,55,59,28,53,82, 
  /* [67][0][][] */ -4,-45,-1,127,7,-11,-42,27,61,13,4,-20,-20,-42,-92,-26, 
  /* [68][0][][] */ 22,23,-18,127,-89,-42,7,-36,-79,43,17,-35,-39,-77,-26,-40, 
  /* [69][0][][] */ 88,69,17,110,39,-10,55,-127,16,100,17,54,2,-35,36,-5, 
  /* [70][0][][] */ 22,-30,3,-117,127,-27,66,23,95,-43,96,-57,29,115,78,127, 
  /* [71][0][][] */ 7,55,3,79,37,-127,-40,81,35,-89,12,13,10,-64,-52,41, 
  /* [72][0][][] */ -127,-71,4,40,18,47,-34,17,-63,-33,-82,39,44,18,4,90, 
  /* [73][0][][] */ -15,-1,-25,69,13,-35,0,3,72,24,-3,27,28,127,-64,-39, 
  /* [74][0][][] */ 80,-50,32,-21,-30,-22,49,-7,-22,0,-112,28,-127,-18,38,38, 
  /* [75][0][][] */ -18,-18,-17,127,-29,-3,-8,-9,-54,26,-16,-24,7,-37,-15,-33, 
  /* [76][0][][] */ -2,-21,-12,38,23,9,-35,-127,25,-118,13,10,-31,-24,45,-35, 
  /* [77][0][][] */ 127,-21,20,44,-35,-10,-49,6,33,-6,-40,63,36,7,-52,46, 
  /* [78][0][][] */ -13,-16,60,5,12,-15,-70,31,60,-25,-44,-44,10,127,41,-36, 
  /* [79][0][][] */ -1,17,49,18,47,59,-47,-48,12,-48,67,-10,127,-21,-28,-40, 
  /* [80][0][][] */ -105,-84,-71,127,19,35,34,-29,-95,37,-113,24,47,-92,-2,37, 
  /* [81][0][][] */ 61,9,-83,38,127,101,-48,-34,-20,-121,-41,-91,-24,-8,-119,40, 
  /* [82][0][][] */ 99,127,-11,28,-126,-26,-78,-6,-71,-6,96,-62,-43,82,5,-26, 
  /* [83][0][][] */ 127,42,11,-20,8,-14,-16,20,42,15,76,-36,-57,-23,-20,-80, 
  /* [84][0][][] */ 15,-40,-48,-38,29,11,-4,-127,-33,-37,32,6,-43,-20,10,-20, 
  /* [85][0][][] */ -28,-17,-48,-60,-8,-15,63,93,-3,127,-2,-49,39,68,64,-19, 
  /* [86][0][][] */ 75,-37,-17,5,14,-21,5,-25,-16,-13,-127,25,24,15,-7,29, 
  /* [87][0][][] */ -29,50,5,-51,-31,70,-22,61,-29,-43,45,1,27,-127,18,21, 
  /* [88][0][][] */ 10,-14,-86,-22,78,9,-16,-127,5,-13,-8,-1,-26,-21,23,-23, 
  /* [89][0][][] */ 26,-27,32,-127,28,-8,-78,102,103,-94,16,-7,-8,38,45,40, 
  /* [90][0][][] */ -7,13,-51,51,82,7,118,-104,59,127,-42,48,18,10,-30,-18, 
  /* [91][0][][] */ 39,-19,-47,-5,1,-127,-6,2,0,10,-51,-1,37,-16,15,40, 
  /* [92][0][][] */ 34,19,127,57,37,14,-1,33,-14,43,-57,8,17,56,4,-18, 
  /* [93][0][][] */ 127,-42,-45,0,-36,-51,14,47,-20,46,-117,-4,3,20,3,48, 
  /* [94][0][][] */ 17,-16,44,75,114,-31,-8,53,6,-19,0,57,-7,127,-25,-77, 
  /* [95][0][][] */ -123,38,45,41,21,52,29,14,3,4,127,10,-19,49,-30,-32, 
};
const TfArray<4, int> tensor_dimension19 = { 4, { 96,1,1,16 } };
const TfArray<96, float> quant19_scale = { 96, { 0.00056253973161801696, 0.00096593063790351152, 0.00064932054374366999, 0.0028124609962105751, 0.0011059086536988616, 0.00060651684179902077, 0.00068620784441009164, 0.0019122392404824495, 0.001338906935416162, 0.00039868164458312094, 0.00061240559443831444, 0.001849096966907382, 0.0012724715052172542, 0.00035441716318018734, 0.00088499428238719702, 0.0011711330153048038, 0.00079951190855354071, 0.00062666815938428044, 0.0007518826168961823, 0.0022174261976033449, 0.0014352975413203239, 0.00050515553448349237, 0.00097106589237228036, 0.00068749056663364172, 0.00062096345936879516, 0.0012695075711235404, 0.0011056230869144201, 0.00073158566374331713, 0.001682853908278048, 0.0011718687601387501, 0.00068157125497236848, 0.00068278791150078177, 0.00045490372576750815, 0.0020721601322293282, 0.00079677876783534884, 0.0013046772219240665, 0.0003790359478443861, 0.0012563763884827495, 0.0015719908988103271, 0.00075700849993154407, 0.0020767925307154655, 0.00048500843695364892, 0.00056034949375316501, 0.00050144473789259791, 0.0011388394050300121, 0.00095558085013180971, 0.0005854760529473424, 0.0010723876766860485, 0.00094833615003153682, 0.00094300607452169061, 0.0013038795441389084, 0.0033932600636035204, 0.00053125969134271145, 0.00084065418923273683, 0.00093089707661420107, 0.0003607854014262557, 0.0013352771056815982, 0.00066789559787139297, 0.00084647373296320438, 0.0013941096840426326, 0.00042587527423165739, 0.00064905366161838174, 0.0011995321838185191, 0.0014492064947262406, 0.00055081461323425174, 0.00074978300835937262, 0.00098597793839871883, 0.0015364323044195771, 0.00033416168298572302, 0.00052562239579856396, 0.0005023402045480907, 0.0013372469693422318, 0.00089945422951132059, 0.0015592306153848767, 0.00093702413141727448, 0.0011068015592172742, 0.00029848245321772993, 0.0010814614361152053, 0.00036298390477895737, 0.0015101827448233962, 0.00051741010975092649, 0.0011188609059900045, 0.00067512027453631163, 0.0014503328129649162, 0.00068947678664699197, 0.00097101944265887141, 0.00081377447349950671, 0.00086165784159675241, 0.00049490941455587745, 0.0010052376892417669, 0.00065834005363285542, 0.0014018535148352385, 0.00044513202738016844, 0.00047731376253068447, 0.00097078346880152822, 0.00073613342829048634, } };
const TfArray<96, int> quant19_zero = { 96, { 0,0,0,0,0,0,0,0,0,0,0,0,0,0,0,0,0,0,0,0,0,0,0,0,0,0,0,0,0,0,0,0,0,0,0,0,0,0,0,0,0,0,0,0,0,0,0,0,0,0,0,0,0,0,0,0,0,0,0,0,0,0,0,0,0,0,0,0,0,0,0,0,0,0,0,0,0,0,0,0,0,0,0,0,0,0,0,0,0,0,0,0,0,0,0,0 } };
const TfLiteAffineQuantization quant19 = { (TfLiteFloatArray*)&quant19_scale, (TfLiteIntArray*)&quant19_zero, 0 };
const ALIGN(16) int32_t tensor_data20[16] = { -38731, 2671, -578, -8171, 808, -7413, -11119, -41220, 6794, 22963, 34689, -9491, -4632, -20595, 39096, -44520, };
const TfArray<1, int> tensor_dimension20 = { 1, { 16 } };
const TfArray<16, float> quant20_scale = { 16, { 0.00059579644585028291, 0.00079968653153628111, 0.00097673549316823483, 0.001070625614374876, 0.00068849854869768023, 0.0010425102664157748, 0.0012286093551665545, 0.00060476851649582386, 0.00077480630716308951, 0.00080034794518724084, 0.00085818924708291888, 0.0005494607612490654, 0.0011383914388716221, 0.0013578920625150204, 0.00054505129810422659, 0.00061922200256958604, } };
const TfArray<16, int> quant20_zero = { 16, { 0,0,0,0,0,0,0,0,0,0,0,0,0,0,0,0 } };
const TfLiteAffineQuantization quant20 = { (TfLiteFloatArray*)&quant20_scale, (TfLiteIntArray*)&quant20_zero, 0 };
const ALIGN(16) int8_t tensor_data21[16*1*1*48] = { 
  /* [0][0][][] */ -18,-1,-27,7,18,0,2,108,-58,18,45,-8,16,-14,-9,15,12,-16,-11,-6,64,-9,18,127,-22,91,-4,-12,26,-14,24,-24,-15,50,23,-52,14,46,21,-12,-112,-24,14,41,39,24,-124,-47, 
  /* [1][0][][] */ -34,-8,18,19,-25,12,1,51,-49,-37,6,-41,-23,-14,5,-3,-26,117,-5,18,11,4,-31,-19,25,-37,18,20,-24,-80,-36,24,-18,-7,33,2,-3,-37,-3,13,-20,-32,127,15,5,-4,25,-6, 
  /* [2][0][][] */ -24,-4,-12,-34,-3,-67,8,-20,-1,14,13,30,16,18,-16,9,-4,-18,-27,-10,-6,3,-4,-127,-13,83,-16,6,3,-16,0,-4,-8,58,9,-4,20,8,29,5,-37,5,-20,-10,0,-15,16,7, 
  /* [3][0][][] */ -8,32,6,-29,-1,-5,0,-3,-18,-5,2,41,-127,4,-6,-4,1,6,-18,-2,-30,8,6,18,-6,-12,4,22,-10,19,7,19,1,3,17,20,-10,23,40,9,13,6,26,-29,9,-5,4,18, 
  /* [4][0][][] */ 37,-33,7,12,24,26,23,-27,-26,-1,-12,-22,4,8,1,16,24,-6,-78,0,-10,11,20,72,0,-26,2,43,8,-80,19,14,11,-37,40,-127,16,34,-4,27,-21,18,12,-26,-13,-17,14,9, 
  /* [5][0][][] */ 28,2,-18,56,1,-5,11,25,0,-2,40,12,2,54,-2,1,-24,19,26,6,7,5,0,-27,0,-47,3,-18,-3,-9,5,6,66,-127,4,27,-15,-15,16,8,-91,59,17,-7,-4,-5,-99,-6, 
  /* [6][0][][] */ 23,-1,3,5,-13,-3,2,-14,-2,7,-2,7,-18,10,6,5,-2,-12,127,7,4,8,18,-37,2,4,24,-11,-14,0,-4,5,3,-14,30,-38,-4,-41,70,11,-3,-3,-6,5,-9,0,7,-6, 
  /* [7][0][][] */ -44,-16,-2,33,-15,78,-4,47,-5,28,-10,127,80,-7,-14,-3,-3,-23,-10,-16,-31,-3,-20,71,1,-42,-51,-32,-10,-17,-11,-5,0,3,-25,5,9,-59,97,-3,26,26,-66,-58,20,-8,1,1, 
  /* [8][0][][] */ -51,-54,-5,0,-2,1,2,29,-3,-68,2,41,59,4,7,10,-11,66,-34,4,-50,23,-8,-14,-4,0,0,44,-5,114,-10,26,-3,2,-21,-127,-115,64,27,35,18,-5,106,-22,7,31,23,30, 
  /* [9][0][][] */ -26,-1,-5,25,13,-30,-6,0,52,-38,7,52,-49,5,7,-1,-4,20,-38,-23,48,7,-10,-17,2,5,43,-23,15,9,7,7,-1,20,70,-101,-4,-127,-89,8,-25,29,49,5,7,11,-13,-40, 
  /* [10][0][][] */ -20,-12,-39,-127,47,80,11,-12,1,32,18,7,54,-50,-29,28,33,-41,52,-33,27,-23,32,51,-55,-107,1,-35,54,34,43,-35,-28,-81,28,-8,18,-46,3,-30,-37,-67,-10,10,10,9,20,-29, 
  /* [11][0][][] */ -2,53,5,64,30,-73,-84,-16,-5,64,-19,-2,-8,54,-5,-85,25,47,-1,-10,-66,-106,17,5,6,-51,24,-19,56,-47,29,-86,45,-16,-41,-99,103,15,8,-127,-1,77,100,-81,-3,-52,28,33, 
  /* [12][0][][] */ 127,1,-20,11,0,21,1,105,15,-8,-59,-24,-3,6,-12,-4,-6,6,-5,0,8,6,7,23,-3,13,-2,8,-7,11,-9,-4,4,-62,-10,9,-12,-18,-25,-3,-13,-77,6,-127,-56,-12,75,-6, 
  /* [13][0][][] */ 9,1,-4,4,7,-12,0,0,-2,6,5,22,-3,4,8,-1,3,2,9,1,12,-13,10,-5,2,0,16,127,12,-4,8,0,5,-1,-38,20,8,-5,4,-13,-13,-4,-2,6,2,-1,-8,-13, 
  /* [14][0][][] */ 63,-27,41,-69,50,36,39,-100,-53,-56,-2,126,-77,-5,71,12,52,21,-50,66,26,19,75,-21,28,55,-23,-113,24,-29,56,45,-1,69,-127,-47,-44,51,88,2,-41,9,57,5,-1,11,14,-34, 
  /* [15][0][][] */ -4,-46,-70,-35,55,37,75,-54,-4,18,-8,-38,82,19,-94,57,55,54,82,-81,-105,-23,62,-23,-89,41,32,52,48,44,47,-49,30,53,96,127,-12,-105,-11,-31,86,63,117,-49,-7,-27,-10,61, 
};
const TfArray<4, int> tensor_dimension21 = { 4, { 16,1,1,48 } };
const TfArray<16, float> quant21_scale = { 16, { 0.025321347638964653, 0.03398667648434639, 0.041511259973049164, 0.045501586049795151, 0.029261188581585884, 0.044306684285402298, 0.052215896546840668, 0.025702660903334618, 0.032929267734289169, 0.034014787524938583, 0.036473043262958527, 0.023352082818746567, 0.048381634056568146, 0.057710412889719009, 0.023164680227637291, 0.026316935196518898, } };
const TfArray<16, int> quant21_zero = { 16, { 0,0,0,0,0,0,0,0,0,0,0,0,0,0,0,0 } };
const TfLiteAffineQuantization quant21 = { (TfLiteFloatArray*)&quant21_scale, (TfLiteIntArray*)&quant21_zero, 0 };
const ALIGN(16) int32_t tensor_data22[48] = { 3282, 32638, -909, 49464, 4455, 125741, -2157, 50839, 7614, 29886, 28616, 2254, -332, 33550, -1614, -1590, -396, 1762, 2784, -2353, 234, -3422, -18, -23053, -5160, 42102, 132085, 102444, 2523, 1636, -2876, 886, 26479, -1443, 23307, 521, 34820, 3903, 63589, 2207, -1321, 57402, 697, 6303, 46374, 13, 3694, 51661, };
const TfArray<1, int> tensor_dimension22 = { 1, { 48 } };
const TfArray<48, float> quant22_scale = { 48, { 7.4475676228757948e-05, 4.0479699237039313e-05, 0.00016774682444520295, 4.7794786951271817e-05, 0.00013149312871973962, 6.9312620325945318e-05, 0.00016619876259937882, 0.00011318956239847466, 5.5156007874757051e-05, 3.862947050947696e-05, 5.8419911511009559e-05, 9.3845294031780213e-05, 4.5439755922416225e-05, 4.1895542381098494e-05, 0.00016819006123114377, 0.00021485060278791934, 0.00019439097377471626, 6.3844134274404496e-05, 0.00011334188457112759, 0.00014535230002366006, 0.00010650554759195074, 0.0002395010378677398, 0.00010024350922321901, 0.00015585140499752015, 0.00011331882706144825, 0.00010847977682715282, 3.1599844078300521e-05, 6.9202120357658714e-05, 0.00011847995483549312, 0.00013212552585173398, 0.00011111403000541031, 0.00017571635544300079, 5.8534184063319117e-05, 0.00020251914975233376, 3.1824274628888816e-05, 5.4316806199494749e-05, 0.00016568790306337178, 8.3365273894742131e-05, 8.8018539827316999e-05, 0.00010284034215146676, 0.00014286229270510375, 0.00010322182788513601, 8.8086555479094386e-05, 6.9718982558697462e-05, 2.6808085749507882e-05, 0.00015808703028596938, 9.0010500571224838e-05, 2.720147131185513e-05, } };
const TfArray<48, int> quant22_zero = { 48, { 0,0,0,0,0,0,0,0,0,0,0,0,0,0,0,0,0,0,0,0,0,0,0,0,0,0,0,0,0,0,0,0,0,0,0,0,0,0,0,0,0,0,0,0,0,0,0,0 } };
const TfLiteAffineQuantization quant22 = { (TfLiteFloatArray*)&quant22_scale, (TfLiteIntArray*)&quant22_zero, 0 };
const ALIGN(16) int8_t tensor_data23[1*3*3*48] = { 
  /* [0][0][][] */ 68,-94,97,72,54,-34,107,-64,61,-89,-79,48,52,-42,-71,-89,102,78,49,77,66,-74,-83,51,-32,-40,-65,-66,-66,60,-63,-113,-12,41,69,63,-64,54,-50,-23,51,-72,57,62,-94,10,76,-32, 82,-98,127,86,-77,-68,-56,-84,98,-103,-63,75,80,-108,-94,92,-40,95,83,127,84,-114,53,71,-51,-77,-69,-81,57,78,-31,-127,-85,80,81,83,-81,83,-83,-16,76,-94,81,89,-74,-127,95,-102, 35,-49,71,38,18,-41,-47,-38,42,-32,7,34,29,-79,-55,-1,-54,36,35,69,32,-53,32,25,-27,-45,-45,-23,31,30,88,-88,-86,45,36,34,-29,39,-38,-9,40,-41,33,43,-5,-10,37,-71, 
